macconnection 0.0779077850497733 -0.019555773524079972 -0.0528195330119045 -0.006220803445233849 0.03991780165075476 -0.0577133155136555 -0.036218324496775256 -0.02597629198855217 0.017140098387745488 0.04705276129782711 -0.020982567653689506 0.015647516039424117 0.06420007131159916 -0.035869861595024005 0.027997165681687013 -0.012945515691914806 0.017137749095663554 0.03278170146053757 -0.004931337895804163 -0.04524470586990112 -0.04799658186549399 -0.04772022371247411 0.01999377201819487 0.002087853273186499 -0.06359856834706895 -0.021298378589938095 -0.009263223801037246 -0.06062397949276478 -0.008345367187586316 0.035306017851485065 -0.06285007478143065 0.056728849938006524 0.03958483875394508 0.01641768200767836 -0.06139648886248607 0.034292802629271125 -0.04268260455658674 -0.02348035156653353 -0.03782795826796064 -0.052103089047889795 -0.029720287837590027 -0.04868281047339429 -0.010167576005225902 0.014501901742611178 -0.04140516643980773 -0.03703636336031728 -0.00880630019706408 0.002598605411112848 0.016771174260544825 -0.03741110337735984 -0.0008034000879374473 -0.04267145601299113 0.03413908502356687 0.06700054003523154 0.029963092743566518 0.009074499473989655 0.025010686780324802 -0.0018347240382172209 -0.052056070423698676 -0.028799648587692083 0.0045267879040538335 0.011959332920534168 0.031301488208291615 -0.009687439016885532 0.0007962612059601297 -0.0054484455240751415 -0.021423253199517545 0.02779421260929303 0.012161478086170576 0.01572985749795036 -0.03911679572572686 -0.01784367330623801 0.0457487032517607 -0.0038112672609390656 -0.007664000770051768 0.020751405365662536 -0.04878936972548646 0.020407300680740908 0.02073427163913507 0.07754398874552151 0.07416055751161699 0.01744394347504454 -0.04328831917106616 -0.002900169906887305 0.006869354182409564 -0.012496179145595048 0.06817543294263298 0.032789242289669764 -0.06096317386511034 -0.018374451390814225 -0.020152232694235005 0.01399907854501182 0.07509710379659501 -0.044211001137196955 -0.011029646167345818 -0.013757421311648026 -0.024101711444617833 -0.059382635742325364 -0.0219404584536709 0.021343504425298834 
machouse 0.038563222928569965 -0.03347554210708141 -0.08400770156537753 0.0072879222163171175 0.06838384599369057 -0.020257579861089357 0.014506210302009104 -0.011690089601673006 0.020470910114619514 0.06042127105899784 -0.05786906588006119 0.06331873702156475 0.041071058327187104 0.001442795117792973 0.05831882411619475 -0.04426436206423281 -0.0038361472654214164 -0.013788027520182981 -0.025277915737341467 -0.08157762067279836 -0.014347409520009223 0.06559073870599275 0.00536274446359048 0.06281891342834192 -0.033364678324534595 -0.04948211718426689 0.019549206027016035 -0.03270773326134299 -0.07323747445104141 0.0031741996034750485 -0.059763558342660686 0.09848045232895589 -0.01633563489227688 -0.05700882107588755 -0.007340736273840786 0.05662201338215444 -0.01720874471016322 -0.018843293360787345 -0.039680433831555145 -0.09326410224647963 0.024076994997239545 0.01725848586119389 -0.024456314212577636 0.016343499593208202 -0.03695438788022915 0.052369676087431656 0.060831884868973105 -0.03885480526834477 -0.003437990179495899 -0.02107938973486488 0.022689321597997986 0.021460322320897673 0.07403743406782355 0.02259372787689108 -0.0362424616011836 0.046404613958623026 0.06592814008029675 -0.02755134736162069 -0.028171161591959745 -0.014866319318844783 0.008287565293831458 0.07445185733602865 0.009201385429644418 0.0335246811210811 0.029795814306135544 -0.03577363291783717 -0.0036463185539295784 -0.02933267973907588 0.024657116654635713 0.055519669222409175 -0.016412334209933738 -0.0029807610860121654 0.07557375856957099 -0.012667289376140454 -0.03791585607269267 0.012067317712274489 -0.05389839767453313 0.09156146386779056 -0.057481843959484254 0.07934278976225788 0.04840154455036918 0.017865096219307236 0.040164199625905526 -0.024094122684571957 -0.009245934309628676 0.01449516580151684 0.13968273235457934 0.05135754943361771 -0.06730786065221638 0.030349758361567416 -0.04536163216738863 0.0389720208396044 0.002219954303748755 -0.006532975661760603 0.01126740313234299 -0.03612345679008941 -0.027216898681771823 -0.06027283174769273 0.027866241190146603 0.035690369903851396 
babyed -0.026641043693385356 0.03732327434104851 -0.047074988357167724 -0.04122128843771726 0.03073671623056341 -0.07774380373843628 -0.029430217202646866 -0.043196238954177034 -0.0270596437493639 0.04132923894167589 0.04584436462609756 0.0070338476094099775 0.05025947193715324 0.015538995926065875 0.12753779186339553 -0.001176775138929327 0.08203307956402459 -0.05067281275766008 -0.03986575499746751 -0.0745925064913244 -0.004424758630631557 0.025316475847885257 0.04355178615931088 0.053677052655406544 -0.03304519050707968 -0.10947670006432765 0.024024695671088864 -0.057709484834902104 -0.044580740884829766 -0.06341630963311903 -0.0197182902664987 0.031551168794322404 -0.03279043836904105 -0.046202861794749014 -0.021259579149237998 -0.03538400586850778 -0.00701550032644623 0.07432973041468292 -0.008393152614105726 -0.09283641244230353 0.01950465567515591 0.00016717515431741365 -0.10574540232930771 -0.031769639658912587 -0.1069704990697329 -0.009596023172221281 0.08163915582481397 -0.0743781579977509 0.04833123858662502 -0.04958888673091733 -0.011324772108373822 0.08490477708033048 0.09371690577181024 0.019846194584460655 0.03146156557332752 0.007294747784576427 -0.011304471842459352 0.0017368432041441114 -0.05665713715480226 -0.08589325467423072 0.010270947234624619 0.030438917529876614 0.08937215153998299 -0.06804546293261007 0.10142613844818274 -0.037396445601683176 -0.006275493945400157 0.013324647604666784 0.03379986707765355 -0.027483342795163714 0.010155396325449977 -0.09882235105389461 0.09629972665546364 -0.04708866389443449 -0.07628748148841329 0.058370270434627156 -0.09591144812662777 0.08688590179825512 0.04998146377802173 0.06058913444702333 -0.10509299932915046 0.10474212270556067 -0.08977012699704154 -0.014525351179419768 0.0021333493546893756 0.02992289510335215 0.0034204992296329975 0.04545669017621562 -0.05817783845868465 -0.07168283244388754 -0.07418978129032275 0.03240099158363887 0.01476059578147972 -0.0037261489776610397 0.07155025591456743 -0.08701910603883359 -0.011762196051524523 -0.04525509299889996 0.0590366331417807 -0.0024882218167866037 
appleworks -0.021424662998745667 0.06487535454824893 -0.06419992997783915 -0.07558212892569831 0.0005852826762231161 -0.026755679675742623 -0.011330233110813834 -0.027118585570430932 0.029732632626426222 -0.004838172583845168 -0.016620480891816194 0.0020844104117190097 0.034516846835216844 0.006792030526419319 0.03790713332741822 0.003318184092397629 -0.06465325949705894 0.06926639442634984 -0.017117079484587693 -0.12868292988883384 -0.01752129063235913 0.06317386070669236 0.07246251134997496 -0.04127153023442693 0.05644077599363387 -0.05172838843910751 -0.013730407883589818 -0.04772344140652102 0.016136917596608118 0.01909670568114218 -0.04456222937033178 0.036297287540178774 -0.09619063754617571 -0.03594207047463612 -0.02420667000185072 0.07508834364799301 -0.009011724991193378 0.03402696884015579 -0.010271219640069548 -0.03789095976939355 0.06768053070122068 -0.04979889497235788 0.0007939978881528482 -0.01978262871661005 -0.05533591924222603 0.03450700296287067 0.035879949909905576 -0.039785483621794245 0.08934097399011083 0.009670198439256669 -0.01846749345439062 0.0052986627876931425 0.09683082642445949 0.06807145839631795 -0.016395192669179284 -0.011207471852789272 0.05305616871126781 0.024341335254610456 -0.06569656928314116 -0.0033383513729234064 -0.0747727021671004 0.0402076773368614 0.047666214983808 0.003796435674449957 -0.03715146994293692 0.016201910042401367 0.009581217602593482 0.023546379458943854 0.021196498555929907 0.02197057096874164 -0.08519599980602649 0.0028327170046887344 -0.03993001488168411 -0.013352966500138137 0.0009309019766791651 0.046926929878967794 -0.04084696545696604 0.005861942980674405 -0.037852414617507914 0.07218762427815056 0.06333759232269923 0.03133266422193227 -0.017294518220335963 -0.035597731186985226 0.0002104875821273672 0.04952670522212857 0.05940710586725191 0.04337681725574633 0.01954882583577593 -0.05335554260082563 -0.04475716420553971 0.04536919833712909 -0.019097265067295914 0.012321410088544768 -0.04836651966520543 -0.03982382875100875 0.0110423705894792 -0.07092463943474404 -0.02437954582889158 0.013374942303107295 
pcconnection 0.06705367837910547 -0.01620435040182775 -0.06043178545656112 0.013627895361421815 0.05950795022794129 -0.04348643877854783 -0.04091255460403321 -0.041096257569616226 0.02037377669634456 0.03207752322658509 -0.03804651405980722 -0.002087938915811257 0.055080319346191994 -0.03473559104790533 0.029845934557673377 -0.03275189397111014 0.03299072787807428 0.04120142224113788 -0.0018099551459358912 -0.04309217029235422 -0.04957535188878762 -0.04523870424935004 0.020657212727535963 0.015517477099583208 -0.043342232136164435 -0.01855090587008189 0.0010933092779392179 -0.05160110021201232 0.008163998534368971 0.014239878041805924 -0.05081017381531528 0.06322728889796188 0.03860562018967174 0.03423292311192349 -0.046724467726556376 0.011760468918849624 -0.04289441215256733 -0.017832656181572485 -0.04339633374165887 -0.04721456761496834 -0.006552302542310123 -0.022818427366530537 -0.012107410069007389 0.022812568383370608 -0.04996025973768503 -0.04054550277498936 -0.01651211337520696 0.006259940815985718 0.025899592974324565 -0.04610933140522151 -0.01550386316228483 -0.033498118167987194 0.02893656731247885 0.06415961650260966 0.02870318514296184 0.002790585626158298 0.03997166378827718 -0.015455003588680995 -0.04011133555527653 -0.05659367085787126 -0.00612917126148756 -0.004576099177453329 0.052175350036681264 -0.008111420505974744 0.01376651509986372 -0.007483627337131938 -0.013889564639369394 0.03538049796840506 0.025525303729970396 0.015670597438851467 -0.04762960216915928 -0.04625933832418531 0.05379501731787143 -0.023297978231416376 -0.024113221415143972 0.025893491306812864 -0.05353400307563146 0.012593433026617144 0.01557384839000098 0.08756065129052759 0.07407583244488712 0.02282397764954055 -0.03375706241290685 -0.0032246034018700983 0.041292118732263676 -0.007612465686309631 0.07993627773126025 0.013992639693432724 -0.044362859159557864 -0.014153290726445337 -0.026931198252820417 0.011955391759518258 0.059520499504061575 -0.039806308607856986 0.002620799944997997 -0.02769678650312804 -0.02618666205304314 -0.06624212347989247 -0.024313812519506327 0.02387525499559807 
z0j80001 0.04532501089063289 0.06283054976467246 -0.09143040139737614 -0.036332892065468095 -0.022851356205259098 -0.048360151066199536 -0.0329653927318154 -0.0340863487497087 0.08242314411305317 0.01255727829723155 -0.014577044134124749 -0.09314930289642841 0.08585138243022934 -0.11031851760044577 0.022127679593970058 0.08375390434077568 -0.04791368926932437 0.09465420066673791 -0.023274215498846285 -0.03467557332802315 0.05336598869389034 0.02283231285102493 -0.028281513905703215 0.03328107376857086 -0.03098367391741526 -0.024130059050497855 -0.01985207622572695 -0.08044648349680865 -0.14771079447059746 -0.15198431104572277 -0.0008439606230341236 0.14892506973686143 0.028090377494355074 -0.07718110403556759 0.007970865956293018 0.15837366691745258 0.05392562823329076 0.0922265639477374 -0.06968056618814576 -0.09987325943296854 -0.032301541756183584 0.028828934588500707 -0.06178832532005214 -0.05677582901668135 0.004447158281672775 -0.038214213208817134 -0.007289359192011909 -0.01012025794637497 0.12876252182615827 0.07438618394144683 -0.09618653803514153 -0.010999346000988439 0.04163597264210037 -0.06789418702929687 0.11507811405431775 0.08982054815737918 0.014899555594050139 0.0589437296073236 -0.029553515141299877 0.05964514817232448 0.021918907987838937 -0.027369475106196455 -0.1406802737984259 -0.03025818998189939 -0.009640186633715112 0.006623437979843025 0.06221626534979674 -0.08792260169867896 -0.04396307296958004 0.06775194690598192 -0.037729653248208254 0.0754443069905587 -0.04703268958237657 -0.0037501553664079563 0.052556849935559945 0.01458347744142829 0.061245789050652595 -0.013303107342849906 0.07759014576454001 0.16179776681046387 -0.04846233156769866 0.043042178225482446 0.023382434787843714 0.019402495057644242 -0.059653687467303276 0.024262375747500436 0.01163724465381423 -0.02604493103632112 0.020550876284700745 0.005476825706530954 -0.19086337891630967 -0.01086149669020562 0.020316585641863248 -0.12819085388558335 -0.07562662638659183 0.007054647463398047 -0.04226399075600979 0.03777685266684989 -0.26856154494625273 0.029383626850241963 
starting-up 0.010359054744891943 -0.04766406497281188 -0.040739835974684 -0.049467494523917986 0.02479176838524363 -0.01716397119330144 -0.012107322601448268 0.030462012790405897 -0.004839254242575106 0.008178137401748723 -0.05689748039231246 0.06092601861096816 0.07178552351468466 0.008562140367815685 0.02555689256488708 0.02569453034340104 -0.04355236260979843 -0.07708691603063923 -0.04032287792901863 -0.034502405168440234 0.0036559155837339375 0.009952585271165128 0.03198565246506287 0.008676840757758656 -0.008224554228736242 -0.07806598503839561 0.025884844520799807 -0.04674005019931648 0.018886439598655463 -0.017358936753481026 -0.04460649236063427 0.024808218155513203 -0.012269985348072445 -0.03105971999107356 0.022681851057876467 -0.009713424410548488 -0.004161137767423542 0.052534520166961085 0.027787125768465988 -0.0424770443048773 -0.011520768560875276 0.03898032055416929 -0.03827579053704003 -0.009909962795335117 -0.05992158202595516 -0.0029243232868634583 0.06369990379784178 -0.08265119792850201 0.019209302128949484 -0.03548117185458411 0.03752779607480792 0.02713741361102118 0.008320260726072186 -0.04411678142487191 0.005759707853739708 0.055847269171952874 0.04198420867465717 0.0472168579729872 0.022595336355443925 -0.06659958441664686 -0.018786372747865855 -0.006000315380584336 -0.013815929408633564 0.026269397325344484 0.07247874519010719 -0.05255901179958356 -0.015482149901883542 0.042360481628129346 -0.04198357791858199 0.006235661078567538 0.0024465120736421922 -0.028397121395688153 0.008010495697563352 -0.0599539652198066 0.020316111008833085 -0.005616096061135912 0.04033783680979324 0.023210253643744547 0.05835317228159641 0.05946058071825135 -0.04557628928274146 -0.0038262606305846754 0.026123986181844847 -0.08472401856718999 -0.023162046671625927 0.026004796351776282 0.07655404798396125 0.028088452426305033 -0.05635947601471909 -0.031242244622877533 -0.04816459300452572 0.03319510214725871 0.010199153297848896 -0.0023188920913771783 -0.05661798040790243 -0.015730755787574158 0.023189033675434834 -0.03136073642673012 -0.005469601341814109 -0.008239446003918623 
dv4-1222nr -0.019452879998930597 0.07301965504818633 -0.048722908472669524 0.011302615339543234 -0.030171055052441283 -0.06392400678590567 -0.071660825641946 -0.05189982772928729 0.07639654073396061 -0.036990759317060716 -0.026755145637920922 0.04889858459674203 0.018432948149705402 -0.04776154097114315 -0.04417060821195608 0.08431145416437111 -0.009056915571790647 0.05902994030109983 -0.03490301074509471 -0.004978398428373876 0.060121457316769406 0.07625702149539668 0.033936243824231695 0.09328515266313994 -0.010465147790674915 -0.023257744968432078 0.05273677274807068 -0.07215078835199912 -0.1350780090567178 -0.007363998966441539 -0.005291047245074883 0.14567557715842502 -0.009086738863368277 -0.029914495206058545 0.020362097791142137 0.1246604481939945 0.0407032606960595 0.12446203243606883 0.02689420565692189 -0.065280939592844 0.028707154452323854 -0.08700625110693108 -0.023735765137075794 0.029697411711117713 -0.048605182838406154 -0.027494213016597175 0.04930280390529543 0.00023198387754913547 0.05959332362006046 -0.021781229198690383 -0.10756544365275718 -0.048518207219735356 0.04847386789067038 -0.03013474519722532 0.04120865926030698 0.07166160690504056 -0.0358876772948075 0.04632958238230237 -0.0089091700399064 0.03521140861822259 0.024196504909265892 0.01328488124774573 -0.11813764416157431 -0.03380454521046423 0.00025727688703547016 0.013352435961199777 -0.014044664322034845 -0.11317753147280324 -0.04650475955038869 0.05987294269910661 -0.05025292250658934 -0.02227280447411014 0.09032305351149753 0.010125712724805926 -0.014217641396125746 0.07862896993333883 -0.013024946676966112 -0.009214982717218444 0.11623679508015694 0.10299530212606559 -0.07699393625811836 0.07782910507042501 -0.009472366027242881 0.03348955291492032 -7.707313902107178e-05 -0.03939758333488787 0.03675746118835741 -0.07597903665436596 -0.005137015830131131 0.027772088873502274 -0.10275040938248671 -0.057255291305885816 0.029407811067626393 -0.12955884711308516 -0.04297962627233591 -0.0024638207170635225 -0.012399165376787626 -0.03601454312132032 -0.1693437028317066 0.04314305147086289 
registration/1st 0.03221541012514888 -0.011594161976295486 -0.03232526035810681 0.02004109138105076 -0.01960866030686077 -0.015548875282083305 -0.03668834445106419 -0.0419584287416353 0.006508024119077152 -0.002484667483490694 -0.010379315985791287 0.01403515477023712 0.056152902002579094 0.006478332422204754 0.03492750311834267 0.008634731870757372 -0.03764365407291533 0.031832126308029667 -0.051278265444293016 -0.011327725749256036 -0.0016512217539720086 0.024691317520797 0.06467885460306474 0.025887984925240033 -0.03141587357196623 -0.0816695552964219 0.0020096518182051827 -0.08550362374465814 -0.061185503279706815 -0.03395885954011186 -0.037677857096057206 0.0501567196417968 -0.08014717491126074 -0.007929833284893908 -0.06622843535371119 0.05627516194799711 0.008420544006498514 -0.00136774315797939 -0.018659399238218473 -0.04317396533688924 -0.010795796954078906 -0.011053606002316864 -0.05360051695661288 -0.034871113635449834 -0.056318978489606944 -0.009125267865707762 0.03464264922092777 -0.02797326972148907 0.029642998541884163 -0.008409661588386784 -0.003132941049176161 0.010018858432439893 0.027017673062218493 -0.009809811801346645 -0.04400276659012243 0.05580141651931249 -0.014532662019813023 0.028277049693147947 0.024483666854844363 -0.06204393490804546 0.006295574319093636 0.009632049283109711 -0.0052609942126466466 -0.031986768264583604 0.020641563930914823 0.002949820072253631 -0.041916347690430955 0.030646837845747846 0.007104313422856011 0.031263873636419665 -0.04266985262415806 -0.002741380888995754 0.015705911259554336 -0.02796893754383677 -0.018665360542696536 -0.00015276879048706964 0.004068351067348925 0.01588094219611772 -0.009446325121510635 0.08970650676511994 -0.03569958147522215 0.03820448688803267 -0.0493731988236501 -0.03015119554040722 -0.025931328835224712 -0.01864342356460264 0.05747210282656594 -0.002894517955692427 -0.004240949809685979 0.012087792683208328 -0.03322908540259471 0.013352896620195617 0.04214545350968045 -0.05944721890666026 -0.01195335816971372 -0.018063512607736688 0.01538149290626448 -0.03596799031247294 -0.07416072140741928 -0.005302592576853032 
mc371ll/a 0.018959854620979686 0.14055468192350093 -0.06852226444742586 0.14345917383296647 -0.059685921255839075 -0.09102100425723049 0.004942098024051009 0.05045544510887858 0.06942855308375263 -0.038246031354012215 0.01593499578997891 -0.024097538611602472 0.02760118542399854 -0.011013845062802504 -0.019009121036674688 0.16577141639045298 -0.008362981034590624 0.1092068453971495 -0.04449453704261902 -0.026524484865158442 -0.059624619771983474 0.05549917389089977 0.2047773954095067 0.025881338962411456 0.012000788987731067 -0.074944759499597 0.02773088541542576 -0.12419748615658127 -0.1262633355454429 0.049117726860680784 -0.09379015271253434 0.08075080685991856 -0.0980931491000965 -0.06044895625367176 0.049869970163575965 0.05584797264714538 0.01998333751366228 0.12772318434821212 -0.08516130436153417 -0.0860068535668981 -0.038718580466807255 -0.0045890002849504645 -0.04767357735470221 -0.05237772304557642 -0.03399293287674256 -0.13754042811556244 -0.031087484499471116 -0.10922644786489877 0.049843124338124295 -0.014908611901686462 0.011018145908301656 0.09657980329274472 0.00923999309476137 -0.037823427183276186 0.07143571567557955 0.1309095339090369 -0.07781481204879552 -0.0660401652985776 0.07799421076399919 0.0676328648718839 0.033356681551568165 0.002926898588084882 -0.09650725143781295 -0.08790890574852525 -0.05674352453653908 -0.031434484872724336 -0.11191344253432754 0.12022098662038265 0.04331567580352875 0.02409903617755367 -0.12263509087337825 0.12472843847882885 -0.035531532880061806 0.04259197705761197 0.03718183006919639 0.09825295512643305 0.0754512618225182 0.010558395023927868 0.061090517046189306 0.0005851496810560646 -0.08034396345323237 -0.05392967448264963 -0.12156093748050613 -0.03420048359665571 0.014836741643571278 -0.1377949286456322 -0.021098986894420965 -0.06510826856388195 -0.023179188888303674 0.0012318988690425926 0.029539883267968827 -0.0026305810841429364 -0.038436730731685936 -0.15435792238425597 0.08722305593311638 -0.05103862434518262 0.09431740396072093 -0.00251004905666008 -0.158701776338399 0.0474541266665419 
garabage 0.012903213290696377 -0.01203498323099302 -0.07826991999495671 -0.06671247326583093 0.0010406818679497194 -0.006762275043729453 0.0250775799424005 -0.027377562923910352 0.023706845402867934 0.027442812071104983 -0.0066638487771070965 -0.0031457954120865553 0.02796417939999622 0.030143899630946762 0.042566661147772585 -0.03544079480471343 0.04057326174570743 0.012160760894570254 -0.00783516522296012 -0.07586798996002818 -0.07657971943622337 -0.04753920633115587 0.15443264230142237 0.08948005234070205 -0.07710093527000104 -0.021977306629150282 0.017803087967770772 -3.551567002282473e-05 -0.03459597733692145 -0.02080583116969542 -0.009700126493437912 0.012882282207371481 0.04400919435941418 0.001997415885219199 -0.016057479313017934 0.09728931628422068 0.010737997863156502 0.06384455497181525 -0.03055190212638814 0.013913463965761758 0.0825276864361284 0.008757748112771593 -0.08516177485514441 -0.028565697810894426 -0.006146898710451053 -0.019353762923903655 -0.014297798686948847 -0.03332709400220856 0.1273805280567146 0.08256489975170138 -0.017447262578045398 0.03488257101195625 0.05571493734241487 -0.0025227687307940332 -0.11722558211069393 0.04444880818846567 0.07247335590768708 -0.0006088217637009001 -0.039423139869813786 -0.06935242090582305 0.008764709350104288 0.0817045198862813 -0.008899148312181896 -0.009925943697197225 -0.018677097426357887 -0.028025745089411944 -0.007681965789377696 -0.05910560931635326 0.0173686802310437 0.002152898300492368 -0.038884750838673474 -0.03177699444811046 0.018080429420230092 -0.08011293535111327 0.089038985532261 0.03737441293111842 0.04799264102371628 0.01761443045093512 -0.04716045772064541 0.05297856197610221 -0.08244993700181044 0.06851291182060122 -0.012816087360467604 -0.03274929536439973 0.05632211605934245 0.01676449862607703 0.0820154873555745 -0.040776559495755565 -0.04761919206462829 -0.0017392277088976258 -0.07896505625482593 0.010740048790344413 -0.08129423083907991 0.016985813739650784 0.018096798032632574 -0.022940929415226696 0.04116283928381556 0.047143656974640326 0.1081452828955971 0.04807150882103953 
hafe 0.062059188143248505 -0.02583072418616546 -0.009505298415899937 0.060670887838142035 0.04745128351255735 0.06723604571183131 -0.03088881351675634 -0.09467816172914541 0.045760366481762495 0.021403162138262696 -0.035932113121857366 0.062304464653337464 0.07496496411170488 -0.03090071062475715 0.04840528909586679 0.08672699255451576 0.029828851618154805 0.02713539141483518 -0.04690686867276826 -0.05222243106487982 0.012593275770186093 0.08692678467614123 0.07241026083940164 0.049975491005782996 -0.06891637928813718 -0.08897398122864125 0.043223012534835126 -0.07403664374794049 -0.048009988004279865 0.0018207580866247213 -0.028423088506039435 0.1397448699828402 -0.0009442390848195185 -0.01668613815370865 -0.04730149045780512 -0.018632555006713868 -0.011627017988932224 0.004315639914221489 0.015707701562714553 -0.031753394362526464 -0.004220858862230052 0.04148565073592993 -0.0765725634583898 -0.09999811642390491 0.03822251613417376 0.06026578374022756 0.1127744652162008 -0.06240088934964598 0.019967538374013997 -0.01081907830817683 0.017064422402012343 0.07158276143271386 0.057073365658137996 0.03525731230950899 -0.004875039079313473 0.10952165469564845 -0.021997679282011785 -0.04336032722000092 -0.054130548588515445 -0.07912604418379385 -0.06942144734026649 0.05045959238324784 0.001883651591361408 -0.04568943883131046 0.04461698999495651 -0.012258067790046321 -0.03039361757507578 -0.11570589910479949 -0.02079086185916924 0.016730897507692796 0.02193737522604367 -0.04562775008521534 0.06433472985794951 -0.02026421581235974 -0.013389193662155937 0.0034362800997350994 -0.0003849776623087716 0.03554079548238989 0.003994831761453684 0.10359052135991391 0.0149742547509291 0.016563714708173045 0.02294622293891026 -0.09159282178673082 -0.09686100482871532 0.015192093083190594 0.07246702037549194 -0.07356708217560258 -0.09011451364313769 -0.06277262728631583 0.000405224564465403 -0.008751688637388103 0.07985764336837611 -0.011244113776222758 0.026487335480645316 0.018969478948354174 0.02973400243993066 -0.08281858099144432 0.026995314287767185 -0.002983338906739697 
multi-selected -0.0007333630857170619 0.02283735426275902 -0.020957836701942623 -0.002752560480602422 0.027958278614456475 -0.007987741079914193 -0.07326152969696427 -0.037400992383284225 0.001543109540785394 0.04746173376205674 -0.02462581312701067 -0.0024975210011512075 0.049383300999543724 0.009438338106760442 0.013985484031329997 0.018109325287667323 -0.01626528266067156 0.012449582985484977 0.034611919668125865 -0.021359863570319715 -0.008003306890803079 -0.002895506592537167 0.024420114325724968 0.08578057774441504 -0.04562864359515626 -0.0535987716203095 -0.06613754688728814 -0.09108713152431076 -0.01964350185557272 0.00020880651701784118 -0.02267825464857094 0.039091158772079984 0.002285352588998107 0.012589772338035796 -0.03274300878706045 -0.013544767482952478 -0.03309809534460813 -0.05026268887626214 -0.06825429435479165 -0.09757051525454517 -0.024491967038892688 0.005431852673652697 -0.07549850470272523 -0.07484027812406874 0.02991398389917615 -0.0428075484348135 -0.011260899278743729 -0.024050531455812724 -0.0003953864493806369 -0.022480505007228997 -0.0014965388345821303 0.06107544049482686 -0.007294599265396286 -0.06323833915643899 0.030137976184816492 0.012954979098129525 -0.0023468235994844877 -0.012929483683426836 -0.041215578290785 -0.013622560851626003 0.04445381251364963 -0.036159788637975275 -0.029432050854044756 -0.017574636848025696 -0.01403296100779672 -0.025414266889459147 0.015070197947502292 -0.005936272111074881 -0.03064698991674107 0.02631126592247341 -0.055645634035218466 0.011974869521054064 -0.09016426181183276 0.08342190319145053 -0.017951997944382306 -0.05372499533522197 -0.018264275788464457 0.013404598995607735 0.007245159808837802 0.06171689187763918 0.030322511210568504 0.07588207986938246 -0.036686018775302295 -0.04949101969452305 -0.027908990448552093 0.02013380255131009 0.11414643057809738 -0.02025351668012773 -0.037490850036498616 -0.0051547413881824124 -0.03595467437588555 0.008450433058103016 0.045326844956057495 -0.009818288458775803 -0.026054461078681444 0.023576262312810948 0.010942219022294778 -0.03817796327508442 -0.03008030496566474 0.044087366840528136 
nv78 0.02590209065248629 0.007779130602634858 -0.04178284951051292 0.09009740602803941 -0.03789165594743696 -0.07345461942525672 -0.06372956972597028 0.017893360551182926 0.06274421284251984 -0.00010206546957543632 -0.04316515076650067 0.05240891741165066 0.04886251673545445 -0.012535195344573659 -0.03884948861030217 0.053570582369660696 -0.010195453046732783 0.1127787998892012 0.005299962532150424 -0.11527899287024013 0.04461581243485714 0.07200497534288913 0.08081243970378724 0.0938985680469561 -0.06490514499092823 -0.09636639944195949 0.005870232264475928 -0.11292432954796416 -0.20455259716862229 -0.039686118993707685 0.011362962362391274 0.12401002982173251 -0.07579030798772239 -0.03442962375515233 -0.06752643470157026 0.13902802353097635 0.17276360544577588 0.02716062554360069 0.07261130897769104 0.025946757489157618 0.034660824507233706 -0.0366919881516067 -0.08493931709388355 -0.03791335451442921 -0.11612602674421799 -0.008386584307679803 0.05695441453583012 -0.028662960735267726 0.0591993805130165 0.03825493135150529 0.024252257607671333 0.05637581629893686 -0.030259959247154543 -0.0035262086781866417 0.0229007575072655 0.08147163258066109 0.02353652465090438 -0.0145862576980532 -0.04332105023301408 0.07886443266022958 -0.02228788583494872 -0.05435954954223028 -0.012608294208207223 -0.0039190365287061065 0.011645393910461882 0.02865244765910897 -0.037946020332404386 0.013364295677032564 -0.04105711725703628 0.09201807193344695 -0.06214131330334671 0.08460397185049236 0.04466611893230428 -0.09147847126416223 -0.040746219533520416 0.024715392993778253 -0.0651230703650153 -0.01848882938045096 0.03181658866417844 0.07260277434046214 -0.025609291004089377 0.028108825850728297 0.08201317238901638 -0.024190725766558816 -0.0241987928800111 -0.019477127457221858 0.03027238867409222 -0.04223141839552664 -0.13296751964440348 0.03249462293745462 -0.10540246430317739 0.10607086497895293 0.038822921090512816 -0.015586998085053093 -0.013898128357094497 -0.017149695377068844 -0.009469399176634244 -0.05939573933504227 -0.16749367743576357 -0.0031492985221453196 
contactus@euro.apple.com 0.013959014614139013 -0.0010077694756027889 -0.008620494923461824 -0.02708422632963771 0.015223447509827417 -0.00045205079165601246 -0.026942431675726727 -0.03447421051661731 0.04263596929779007 0.03089206432732747 -0.01591423788498313 0.019022025859036534 0.0485129485223069 -0.055728295539090845 -0.00706279182198648 0.02662449353002722 -0.01385753536684035 0.04816387401277513 0.009213409327613066 -0.056132290949289836 -0.022874022048271762 0.03079814006365958 0.05886352468549831 0.024605195888079873 -0.027297637581545218 -0.06858741586667329 0.006466527471853039 -0.0408908251966693 -0.014260649847787204 -0.035836462842507584 -0.043948650891828915 0.04144462322897424 -0.06183277883768248 -0.0017221027583436805 -0.007815766406833308 0.06078595870072652 -0.031102644876652707 0.030345840100893338 -0.03887783591022721 -0.07641435484193228 0.016478317114801473 0.0003971938122578808 -0.07802983543649748 -0.03997511059287308 -0.057805063914477366 0.048002342051440244 -0.03559225781918521 -0.00421954337800852 0.06935591591562959 0.021243543075817523 0.041582796859208314 -0.009114850130990663 0.014824127591414639 -0.0012626105726562026 -0.04252145690601883 0.013586839106917829 0.01810931850628027 0.02289837875712718 -0.05391688861237253 -0.010361555228194593 -0.04371294950996855 0.04206812654996304 0.012512647433149168 -0.012434103553648317 0.01265513822584863 -0.025533010234215506 0.03787416652915675 0.004426540436351773 0.00605031679695649 0.06887384025918815 -0.013286631858599147 0.002366027179237525 -0.015819120687108678 0.030910506963479918 0.013523053990834956 -0.02808111978962032 -0.0104689938760872 0.0020437971818129397 0.033684025130490916 0.07942814359672876 0.05187941915334024 0.01774647945982077 -0.00028263520096017064 -0.03865088977507752 0.0063899769704943215 -0.004198970357438291 0.03397249790341628 -0.018612411593471198 -0.0163419040704406 -0.026714725126312636 -0.07271654880272056 0.032380036712632614 0.052850845195854125 0.03079421921696509 -0.053442726305593206 -0.051288662559997034 0.053486670238055846 -0.0445099796933788 -0.04810238102960915 -0.01885666157691798 
165.00 -0.05239737947573213 0.007267496804309163 0.06960888221604189 -0.04866772543678849 -0.10382478876493197 -0.07105405276016004 -0.003951424238876269 -0.02337657484454032 0.08772927636762695 0.01981609718904687 0.03379092327287333 0.03584310849124511 -0.02361574799786132 -0.09215766436495602 -0.08698133921768729 0.0954004872548984 -0.025579468067357704 0.053075530291020794 0.023732935051312094 -0.017909662160049973 0.03063509554116948 0.13376080598396112 0.08838707439660812 0.09768562625521533 -0.00619703116197936 -0.08757967827399687 0.018738735685990632 -0.14502470710791027 -0.14277754592403974 -0.09348115972538584 0.0842765133721734 0.06571926612342655 -0.009199161213179569 -0.05795440872571519 -0.05775067170798877 0.12810569587717258 0.09198128830593123 0.08401010206374804 -0.0045645242904870965 -0.05883090533674653 0.04509455996799341 0.017933672846279274 -0.05695797908606889 0.021418722463052476 -0.05864038170377836 -0.07834769132020966 -0.03258879963052958 -0.03926250522981934 0.04773705926988308 0.0019501653623331674 -0.09348732577855098 -0.023800380346893357 -0.09457868767749837 -0.0427185151646081 0.043654031949914074 0.06845139042717396 0.07448852830782438 -0.02016071141145669 0.03463987439420809 0.0912583770710118 0.01868087669619841 0.008333353273585678 -0.052762129966529826 -0.016929961050813173 0.02188029543758157 0.041943637999166 -0.018029585555298246 -0.07546265364771158 -0.07792226554960996 0.03762552160768581 -0.007965275866136674 -0.10238308762980122 0.11163623679097551 -0.024100158843520507 0.057664776929062474 0.11155397435881106 0.035759607516626574 -0.026425977994259706 0.11898109668924244 0.0779543117733201 -0.08577689678614941 0.07110527922065088 0.057181130466310855 0.0846110010926646 -0.03431647028226529 0.027806228858336005 0.04124565861569849 -0.06084217156414126 -0.026374799151267517 0.01849777043542944 -0.1363367333088009 -0.03158242384537945 -0.012532672325981032 -0.08966146266631987 0.011316000233583302 -0.0643287795744253 0.008528261310752615 -0.00702417251396135 -0.14210651901251253 -0.0013100294563181912 
question-raising 0.05558001031258475 -0.018449208188645944 0.01085426638687369 0.000776869728138606 0.017439423987242353 -0.032307787917290935 -0.03711297903422614 -0.07228341588893453 0.05062393868015908 0.017871744076059324 -0.047951879139060904 0.025804049495993384 0.06607068912368004 -0.01848542295106044 0.02451103633318245 0.00015980488190642535 -0.0060936321528549005 0.01438577088689923 -0.047013836574964114 -0.027400887900032977 -0.036014494648276524 0.04301106811101695 0.07012308358070493 0.03500341236317751 -0.025670575356298447 -0.05147264782388716 0.013203238955069422 -0.021391664688533634 -0.03590595675404914 0.019272110750125238 -0.04678250403768589 0.09866831282558874 0.021116609106272697 -0.01320838849399327 -0.024850197827159987 0.012993006027170965 -0.02096033102638071 -0.004196890555475546 -0.007780311365482917 -0.04390682097420308 0.024259345815590066 0.0292623187660758 -0.05032164594338631 -0.03938258548154033 -0.030008966572693526 0.004132475595488979 0.04322954307829417 -0.025755431348344317 0.046145405470128936 -0.02527455870661754 0.04242691082052088 -0.015091362612312354 0.008176264087280227 -0.02705849256053926 -0.07261379279160422 0.0492848889322593 0.026340062400562067 0.007899491879157094 -0.06830070183285088 -0.03459010894914722 -0.017067256745508644 0.051403198806324955 0.04824942742781594 -0.021960565726993356 0.046132703323505095 0.0035169710214114796 0.01015576036965878 0.010052168335175752 0.012029924242967536 0.01026817564004314 0.05009185193505661 -0.04506289279068639 0.0050244087884660695 0.0023118043325891804 0.006391396370855684 -0.009756651051845219 -0.02752758572904562 0.02886678960024128 0.022233115980205782 0.06055197487935813 0.013166752542805396 0.06169252790841496 0.03236892261644546 -0.07391986941449448 -0.011823495841695926 0.025930766869550193 0.02534007523595361 0.02278913610838571 -0.02065595395273945 -0.051273526864950535 -0.01952489372492281 0.03240771749152033 0.039275526813240896 -0.014033118133012126 0.010750838146095225 -0.010740019940601466 -0.01986987468299221 -0.031223485181702388 -0.018165827913785133 0.02874393245274868 
comex 0.06857838676416267 -0.06845233368218559 0.001589211761857584 0.0580943859232655 0.10192944681134304 0.02256579598648498 0.037620190439193534 -0.0629928364329871 0.06189036032784069 0.06525536077855851 0.007610046264895946 -0.06930604532435547 0.1057569711572297 -0.04226682850074453 0.09608862754554064 0.0910490084758195 -0.019658201698252616 0.08537495190495238 0.03377376770034737 -0.051626362969776345 -0.0306420277567518 0.023817892751128503 0.020231794164580392 0.06303723303468116 -0.10306205165990737 -0.018194570081245417 0.01659989733621384 -0.032896616653894734 -0.023944994036401254 -0.014167823080768763 -0.09068955448987716 0.014503735915462519 -0.05196223971572936 -0.009933272687306084 -0.06156948578783032 0.08653670434884755 -0.06402328406821987 -0.00943499660800433 -0.0038809908630367813 -0.0971968683031521 -0.04458948739860264 0.06005570463095283 -0.09493910382965427 -0.08412650266426047 -0.08550570560361903 0.0910849269009904 -0.02008934491994561 0.05136868377292896 0.006054673692873592 0.005522143461425697 0.05953568454693199 0.09477712452268168 0.04965373796520401 0.02337106990290451 -0.06776665924957573 0.02620424327054248 -0.021861721418368483 0.0024826464555875085 -0.10451440182014264 -0.1356239370943295 -0.017267395616340248 -0.0021300720313686345 0.04897429023735604 0.0065412284984275185 0.02013553245450292 0.043193438467895286 -0.033359890845625184 -0.006843550282482486 0.02095613848598124 0.05959385866568924 -0.05179437468438727 -0.013737870671105032 -0.018963645360884452 0.061603984761337056 0.05236491602230806 -0.061156509987473816 -0.04469501320484443 0.09140330363448011 0.12144864667102429 0.1286463192354577 0.025010943679302865 -0.0007734278146033658 0.049652836910838334 -0.06129586048984689 0.04572796470019309 0.029911017018205026 0.07849783164299909 -0.0027418241500828267 -0.06301121142279052 0.033864547690776826 -0.07251355474329634 0.06800138461032632 0.04622548687405917 0.008609763638893302 -0.01010102339883072 -0.012004270476874131 0.01623827837507272 -0.08489176324758754 -0.054352587703464864 0.11190699502843875 
ninteenth 0.08401151228208169 0.024882901131599657 -0.011602442650652899 -0.018565083064390857 0.10456624410552243 -0.00644344411809058 -0.004202200663664697 -0.06456694827438561 0.011118598955749305 0.022347767438775118 0.020184783707606145 0.08831391866700083 0.004402473804791025 -0.06739619103312106 0.0356565109472872 0.0069758297356324345 0.07220981914886633 0.002148900406253625 -0.007878404448690642 0.058395851043975294 -0.021502668292352894 0.046652390742325474 0.04348236579330442 0.04929559452582396 -0.09966811417764017 -0.02634454394993523 0.009416327664002664 0.0019683342142984843 -0.07707070522621812 0.01569746152231457 -0.04136898562583406 0.08987490347154933 -0.053947691682474305 -0.02041402540044688 0.01319437914163982 -0.03185785230586991 0.017637526624683025 0.0013831293097133364 0.01837071168031524 -0.010814041350104914 0.022244924960750246 -0.025736874467060165 -0.15183926306715936 -0.006870369908931596 -0.044767536612922536 -0.0032043478730211395 0.07715185973245403 -0.06528010164866817 -0.009765741616768867 -0.019367761571229616 0.00398347376749686 0.03313273942151133 0.10237019703069408 0.0049082317163138415 -0.05687513720387678 -0.009853324576157717 -0.09591707281366886 -0.004978252196237765 -0.06363659031698898 -0.05934268958351339 -0.018580419816266496 0.053344677431454185 0.010563286508002116 -0.025905480898943553 0.03869135863486545 -0.030763836839313715 -0.08304608970214482 -0.04961582420931523 0.045290706994474156 0.03909669470843509 -0.02363451126199705 -0.03267372331939328 -0.009537396188732079 -0.0004340428238934261 -0.008241314993234007 0.012679262071548032 -0.008794655033096014 0.04443123042481414 -0.038918509043163636 0.1515337952268744 0.03149973630072492 0.07985676083373916 0.056980591642212065 -0.09054409312553574 0.02876581927916923 -0.04193303720423475 0.0569609583340368 -0.010882227058295914 -0.10227456385316637 -0.031035879716739843 -0.11051728328064225 -0.0006980006251121652 0.05175350625468362 0.0363537099698693 0.025673175421362184 0.02823419572037288 -0.0011106118569801959 -0.07250284591831559 -0.014939484580133985 0.04416092266761969 
filemaker 0.04629876948160525 -0.04028603187100993 -0.06608714082272175 -0.050945406930729034 0.06812115512502691 -0.008842937707082362 -0.039425257554679655 -0.052466867452502494 0.014056964300858035 -0.033329288732836575 -0.05174875683560915 0.0028082750777990557 0.11438223779935011 -0.06327477933480673 -0.02476680830666354 -0.009592517302384715 -0.0528938552836952 0.022031409240322476 -0.06693152805473877 -0.06985541991811642 -0.06666309082892855 0.03879544374285144 0.03690957026191181 0.07096736584782731 -0.022151136330258857 0.019411716628450433 0.06760484622323992 -0.04397144340747294 -0.03191253858492391 -0.02838645788378466 0.005704924566017452 -0.04828602240342627 0.009543350868963758 -0.04111389597287522 -0.03222640783027258 -0.029840700490899832 -0.10511432019229491 -0.061811822365278046 0.05027664289994466 -0.10931176210606812 0.07799646674561449 0.06176759386173812 -0.0862310928246087 -0.04407179581796164 -0.013234361283214854 -0.007549838383382043 0.020712410537551455 0.0051617411614422026 0.03527499666946949 -0.0365633576573331 0.03616470880439035 -0.011305393052860938 0.012241424393825076 -0.027309896735965938 -0.032994182614233133 0.008261630093811806 0.018529058388035636 0.05915984237538685 -0.037709021650981896 -0.06155930504187704 -0.01639484653670429 0.08312426492874513 0.08539078798637954 -0.0411179207556379 0.04488660765385396 -0.05532495049937707 0.06641359262738236 -0.0002753499085485571 -0.007892811440997554 0.04121896446932502 -0.01517918609332678 -0.0019250838881075517 0.03570230720389397 0.03915634279327899 -0.0354699322388566 -0.0015306192050350532 -0.006700342614851183 0.029464211124349878 -0.03932259578463672 0.08084617732728111 -0.009741973354788004 0.02974451904441997 0.0181953709645743 -0.04850651858333991 -0.04436747373090916 -0.008856775179750993 0.028835320966121496 -0.06451195510230211 -0.05841027942747344 -0.029908407699094596 -0.09358622710133832 0.023972634256302843 0.01217283691856031 -0.03255523897463902 0.027232170426249466 -0.03565433385274962 0.004175461350431726 -0.02825168952869477 -0.008078201325352407 0.04603174702192052 
macminis -0.0075586992826723156 0.04100883804888271 -0.06667671890216456 -0.0207516468819349 -0.009114569214479442 -0.053228833692145004 0.0023379700377615152 0.07204157521761256 -0.05891227346433234 0.02156452579759949 -0.005667199236326339 -0.014051955314596298 0.04563729504886051 -0.022339015136561374 -0.06663237644546141 0.053997950231941476 0.01709440106326802 -0.07481769042157656 -0.016124116381478877 -0.12629191236771267 -0.034175424344893214 0.06436950765068077 0.06144953346399668 0.032660909520011855 -0.06840024709645577 -0.0715356792707993 -0.016403536097657097 -0.07129714710441966 -0.09590121478731807 -0.03944803583342503 -0.08056100105311771 0.002875374468787197 0.007154432234219526 -0.037678207076997254 0.007874156687034645 0.16527633189834254 -0.03617719762493322 0.006871195393229984 -0.030472182173913016 -0.06460386123935721 -0.04076000864940482 -0.0816229909602527 -0.023817455984944925 0.011827054473544466 -0.009422227990808196 0.0009676272529866743 0.01852663456491296 -0.08745211603638921 0.005847098800982411 0.02843845297990814 0.026813539305060755 -0.009361686178079408 0.012968104076652158 0.08633458871114218 0.044379459075086704 0.013875597968323706 0.027376141479650236 0.01087888188113186 -0.02867477256947029 0.12808919624362577 0.030033940532684048 0.04700894700689607 -0.04716094321988028 -0.00836489815507869 -0.06319006427991937 0.0032331710053885975 -0.005460784921758786 -0.006418998101413951 0.010790154925169606 0.029621309493583374 -0.09292768756455279 0.0925513732943843 0.0271488819403188 0.02640712366247375 0.0527622334987701 -0.0053419127879617495 -0.018267036866119732 0.012081649523950529 -0.03499262280056484 0.054731419207872306 -0.05693447894111658 0.00937068541378623 -0.0006032400301891712 0.0021128140564719454 -0.03270479409868892 -0.050192572390146524 0.07274823208568093 0.06635717671757352 -0.0194710396088035 -0.08960954336482571 0.03461033755613132 0.13729873959195946 0.04913117832980504 -0.047985008715051784 -0.04853279288436558 0.015247655716851664 0.01601385495562295 -0.042621826252123414 0.052229135353037415 -0.03457594780974605 
md101ll/a -0.003012998385735609 0.0437374399217225 -0.05763402120952538 0.029304134908562866 -0.0027514980386949502 -0.06656866731235651 -0.010479694580432785 -0.09300440369978637 0.10680494705171387 -0.14965392617058024 0.07170741493103536 -0.07293764754840977 0.2070294030494388 -0.018948985102438448 -0.002077148188687449 0.17103326709681554 0.06005812041139427 0.1110206436330879 0.02394459270392049 -0.07185711471550658 0.10582479572458696 0.009163095690869223 0.01207191894663299 0.09342520110563102 -0.03733223020789355 -0.06849026515108429 -0.013578694043675572 -0.08822310402577899 -0.04494057956404058 -0.055085371645415465 -0.06832466769821322 0.1416855863604043 0.07034446507143124 -0.06409676986588976 0.011814495229293752 0.21417539288798484 0.08607795442198413 0.10886798792234066 -0.013342542421796433 -0.08149330713657091 -0.018207391467859164 0.0515544752794335 0.06879926385700373 -0.07873900861229434 -0.029662905330629052 -0.1458779291085742 -0.13874443388744187 -0.05233242353819687 0.014788042235693686 -0.02148165015236185 0.04080248074078462 0.03070798424424277 0.1172264880170193 0.05977542131050959 0.0788409632375279 0.017728166172526084 0.046653927259951385 -0.019619389406331362 0.06718451430144583 0.03414733397521979 -0.03111608586709816 0.09420829957565692 0.03248926816271336 0.03306118608490645 0.028397835096370776 0.09643184397467224 -0.04753547579011485 -0.08836975931827604 0.0455982270833461 0.04503672786158587 0.022483587199091944 0.07729251496856752 0.05837772382302039 -0.008864795082015339 0.07619246197350645 0.06735656581653196 0.033584233345093216 0.0030522480246953842 -0.03807174766355763 0.12212623882477616 -0.169042417077388 0.14100842578027195 0.03228353584921794 -0.023831743006995317 0.03604293209463188 -0.04065052995077605 0.00885164667648112 -0.012543744654979897 -0.024656688573342855 0.020379891673688748 -0.07939910737139062 -0.10296955212824292 0.07596076207130811 -0.12400953976706162 -0.08020395873191535 -0.10584399772382938 -0.05849587041444024 -0.09158230464172044 -0.15751292131458808 0.028498281212618364 
keynotes 0.08167153694757803 -0.048322040605452525 0.018793201705899293 0.005280548137000236 -0.03557718805957666 -0.06763738710043775 -0.05742922337350761 0.014227631303667589 0.011734634932756375 0.07439032167879249 -0.0401042108328441 0.061317922882794966 0.06772528763868631 0.007253485531799063 -0.012552663764866676 0.04710109181478429 0.06503990729710883 -0.036414551426450587 0.015182399124686772 -0.054386523839849155 -0.0906020022178753 -0.0453943416566583 0.08978891738843857 0.019011898212465416 -0.0028298492483596793 0.017629975774318858 0.04467669122057161 6.918235460234377e-05 0.020390314299313154 -0.017364579773651505 -0.10439620103460934 -0.015124547568482145 -0.03762992589349156 -0.03469047784671545 0.0413807586406278 0.0009318616938810058 -0.061683580039575116 0.008244632300516199 -0.012746527451636947 -0.0192497955217165 0.041439444525902355 0.03319689481753633 0.05245245739811453 -0.03700088508126049 -0.04708164269825926 0.07710525412250059 0.015606000358733147 -0.0776292185991787 0.011721781053554488 0.02029032853329952 0.060050188179066 0.022833276042630357 0.033134594314731695 -0.04502294315909701 -0.06131902494765792 -0.013440341078450229 0.06883228882090074 0.09228208582116676 0.007292777656024883 0.0439543101322556 -0.09076075015999169 0.019470472931666125 0.006015008399485596 0.05858382351325491 0.022563805496676876 -0.06891934061398443 -0.01911612979977887 -0.07952238721982373 -0.030046813517883363 -0.0158011309544346 -0.12163973485435192 0.021988314171356993 -0.03446697940294983 -0.046433820566482965 0.01083628016285486 -0.0875166887463491 0.020522687345732663 -0.08375142112259386 -0.0445125587602773 0.07147724010700636 0.024299837401796174 -0.010694306424054613 0.01940224264080956 0.04372335862560837 0.12896033089761608 -0.034351305277950876 0.011732120595054612 -0.05097754210595056 -0.007399998924122449 -0.030014213139266402 -0.015483881560202186 0.033235828440838326 0.07589230321832931 -0.03628750456444122 -0.10860791389258274 0.07518510198695763 0.09260278514408142 0.03795094481521648 0.006369650078415918 0.05255104098061556 
within2 -0.008844609217425723 0.061834944423001886 -0.022495416494472415 0.029349570782041628 -0.004193755306198937 0.011360234224138305 -0.08530843500055843 -0.04912620970421926 -0.05712841499377782 0.05239112517335532 -0.02107126466256275 0.011492919555510456 0.05879412662551296 0.0022870533317683487 -0.031361678623041137 -0.075989928914693 -0.02655954338009029 0.06446740101388089 -0.029547095948007304 -0.007106744619002677 0.023882964559299055 -0.038974837312173424 0.029782441550384266 0.04902675091888415 0.0038274257175141047 -0.04092479619376928 0.019107264723600897 -0.014304746005388799 -0.00020568774176393833 0.0580917822015393 -0.06519672440111951 0.026771097263399223 0.006397244947963554 -0.0474108836399341 0.07000690313994265 -0.033157451326385326 -0.040826817370386036 -0.09309114578326372 0.00481768312833501 -0.09025276929262477 0.07204916189919346 -0.013161276143063621 -0.05546568537898505 -0.024775383575936828 -0.007334100405899773 0.027195096719543062 0.06817492224873506 -0.025400230322313637 -0.0017358453360852128 -0.024020564867402415 -0.044309528381357405 0.018456665636796318 0.027963878965782788 0.047736924959048334 0.0013039603984483397 -0.07201414696824618 0.005928553809956526 -0.025793519833892893 -0.038682053327711664 -0.020105229836803122 -0.022694902922082025 0.013334342142190283 0.019935592992885248 0.014091942963179145 -0.027577585813774907 -0.021652375632580236 -0.05972009316459694 -0.08245916948758697 0.022912298396240812 0.02805180877442986 0.046040134711634144 0.05241706095197232 0.07014717085908362 0.0072370388058002584 0.04853027230035689 0.06066258860793808 -0.01543346434712036 -0.03303448025752862 0.04411532819183409 -0.024277912445758575 -0.054207750523139114 0.0433679174874033 -0.11981555440246108 -0.05057043361792242 -0.013856933613486881 -0.0730970818045038 0.041609049808091485 -0.01594329882837555 -0.01335680667499681 -0.004356519714641755 -0.01974790799905911 0.007687954037566381 0.039766066324950035 0.08887185498601989 0.030420719473726345 -0.003556450951150088 0.029353629330150423 -0.07598599050718298 -0.02400626829136843 -0.06078052440424438 
07/2009 0.026879325308498046 0.11597794747669882 -0.014828241914114094 -0.004650623306266788 -0.03144564345374178 -0.13512959352361592 -0.0592907569864845 0.01157726698299037 0.04209068948530273 -0.009112472230465487 0.06561640825702765 0.019537593010270325 -0.011986073835299168 -0.051093237739767344 -0.04879841385481462 0.12822584582458865 0.07214522793298851 0.03679236594925119 -0.06396355883210238 -0.08813924126704463 0.09472373379188713 0.11249572579018637 0.04986303636337919 0.009859060557539186 -0.09146614973176492 -0.037374191887156814 -0.03143381659132345 -0.09002797755719981 -0.19241845267644608 -0.05703583470504703 -0.009085623371504757 0.062404263996037594 0.05732383636035942 -0.07750603784307035 -0.02248377000406286 0.10022010104485925 0.08228942976389024 0.039469762151051684 -0.0452372402480997 0.01606386987295725 -0.027174042263555874 -0.02830794910075401 -0.03445834107711865 -0.07727470872386202 -0.06918515770533182 -0.07754685653715786 -0.013418396374235536 0.04334898000918029 0.07826715334348473 0.05900636050906098 -0.03568776689482668 0.05131063718712489 -0.03738914100772597 -0.0368326086204703 -0.030616239441107775 0.02243426998876641 0.03402239485148613 -0.02525891896301002 -0.08389580387565458 0.057857359730669536 -0.04969859883108545 -0.005052899609899697 -0.06930670959001575 0.04104912785669662 -0.03285339305269015 0.03128084084309007 -0.022128972746244733 0.07744697966658017 -0.0716059820525493 0.04099931474247039 -0.0038877985965246435 0.11580199693761593 0.03154409167584718 -0.055953635582756546 0.017996870371514834 0.016607453503618617 0.06466421847402214 0.003188943537161208 0.07135490197298522 0.015636287562238067 -0.07853693228019659 0.040204366396854235 0.06037633567382656 -0.03977908318630295 -0.014562147055755755 -0.027150819740963467 0.0002903305432433153 -0.07537842348405022 -0.011097671250804846 0.07522480730618773 -0.08274840823131921 0.04162851448676617 0.04839893966727756 -0.116809245798976 0.043172190115836874 -0.03404949429436444 0.1323659172917666 0.0031475756830341055 -0.13860056530190076 -0.05107081659094622 
mc373ll/a -0.022763138431248355 0.11028654760714676 -0.027887384433368672 0.10389274519216933 -0.03482473390513411 -0.18318826486500833 0.048882325884421464 0.07899393359241524 0.02392272246683591 -0.03300278380677603 -0.09710245194706885 0.016147141653177637 0.05588547140054032 -0.017301141947060956 0.006790421534720992 0.10258300874956561 -0.022071173089211037 0.014295993675381724 0.0281278748521229 -0.10439639534113185 0.002690500165846871 -0.013449243064497234 0.26663736333153726 0.0198255398834537 0.0029611488899637895 -0.04611417394377419 0.12103988511227674 -0.1133444915978605 -0.1353143335819899 0.04150002051130509 -0.09679670076134334 0.04611732926307933 -0.0662782158862369 -0.09329189910953216 0.011594289238903077 0.0684632651918236 -0.06065487157196158 0.028312536235733748 -0.15220792059227345 -0.005565495241477614 -0.03843443036607682 0.14037642687184707 -0.10973944615952992 -0.09737875286506502 -0.04492363695223448 -0.07486401107878432 0.0308785330711061 -0.09441100555795928 -0.02838323615665186 -0.04651632534967547 -0.00656934685363319 -0.011192392549598593 0.04684977498624341 0.01295169540365364 0.05269427384247737 0.13037253358101378 -0.10111579831118615 -0.03763163163948022 0.10418204596982333 0.07436636097250875 -0.08785825486430766 -0.029066685954985953 -0.14499392561333152 -0.14374742547626473 -0.04658847953006672 -0.017355541402767093 -0.06479721582705121 0.16753591415923177 0.10565234467231609 -0.0775890632948734 -0.08551325843708492 0.09509555338505983 0.007628496647330045 0.024100136068964346 0.008748245708012347 0.08238445946032191 0.15426021924444977 0.02574888819472018 -0.0040154474267951 -0.0118865460329309 -0.09994950363414253 0.03103023333546736 -0.12756183325849682 -0.1045078950866601 0.06649821465745834 -0.1186928379137701 -0.05102792345415074 -0.06055677075761487 -0.008363444833000885 -0.040178681192206946 0.07675411067246515 -0.007729903742474995 -0.03598043199922205 -0.12065454127647576 0.0001314998878180378 -0.061506770531464375 0.11896638956890063 -0.032873683004710656 -0.110547796497218 0.04130127823589843 
distan 0.0006019841497181047 0.0044077861847939 0.0048764184682297115 -0.022079445311858025 0.10078780225476892 0.010628315245722327 -0.07836553607378874 -0.05436207336671157 0.053082025300029874 0.04493689160629176 0.0001306403986684264 0.012374664146578179 0.07911704791845081 0.0047129586555528106 -0.00678580009282297 0.006353749765969989 0.08671565227983168 0.04439722503362264 -0.027812895075748877 -0.08009800470052633 -0.029661195376194698 0.0637396896195954 -0.03310762577860267 0.09186500145754245 -0.07718055216099029 -0.09700288310708281 0.0081641821864024 -0.09849333425418592 0.03626832661796064 0.04794080206564872 -0.06902425594717412 0.08885248449248746 -0.008779731668040606 -0.0008514329613777527 -0.06499547173139385 -0.013663832149246699 -0.025332343059258806 0.006613632803575733 0.03260589018304087 -0.07760757125130309 0.08057063654809224 0.023780914095764036 -0.05025256317135585 -0.019273631787718497 -0.03241701225323263 0.019679445597864095 0.05793867350072026 -0.03493443832200059 0.010398781987899426 -0.0352126320945447 0.038971039219008956 0.059557506822455364 0.09098303478020403 -0.06150092370247561 -0.03789287670714679 0.01370650655516278 -0.06683845495692695 0.02174603949151435 0.006568330797569905 -0.04385372731096093 -0.04726572850855851 0.07380017444299938 -0.0018617278742580545 0.04673130714375542 0.006346700120916378 0.005990129750865691 -0.022089906390933882 0.008611072747957433 0.00954994663996977 0.11820793872857346 -0.053115341652159295 -0.037325843846065354 0.028486879140828803 -0.004495980438850473 0.021115897429327447 -0.037469168933696145 -0.03185311360253327 0.05288852428573175 0.01680359616212485 0.11319984906238001 -0.04241202670156227 0.025180479661044017 -0.008252680944085013 -0.08028721868250757 -0.02092394504899238 -0.01342605661040195 0.08464967259331702 0.020853379680597233 -0.07107358669323806 -0.03867086434076782 -0.01386584700266212 0.0744830559356181 0.1109541506722085 -0.016513267025625417 -0.019245662312819226 -0.04434567556160711 0.10218183359179205 -0.08076252847008025 -0.010113365814843548 -0.03836845913935774 
full-inch 0.003624424350949003 -0.00045080605381525655 0.07763504232745712 -0.048189811787635976 -0.0005203104887996879 -0.07712003893602974 -0.04156237018443002 -0.06484619797229826 0.07514945991673529 0.0072810308986870345 0.036399562294975346 -0.0445338941856864 0.04664305119279367 -0.0056767617241274 -0.042000646185874894 -0.05342120178269937 -0.01017497562276003 -0.014301374542295936 -0.012906930913309156 0.09653451297744829 0.019970972854216954 0.062371210082134136 -0.004688062817583662 0.037930745051961 -0.009732359996991935 -0.1283651839672743 0.04368615093319125 -0.05196854358064026 -0.058228260103686695 -0.08758408150837159 0.044679205343833725 0.1368543087800272 -0.10160474955368914 -0.0038221124438613204 0.06485516698592049 0.06631244961143815 -0.030082584789380265 0.02538667115630459 -0.08142797358652801 -0.10576096397592101 -0.032466742691944876 -0.038498556376724724 0.04441386633680367 -0.009081200085246896 0.007437702619217759 0.03565403350125685 0.053632151616378194 -0.00895672365822727 0.029146074632257303 -0.09353366937360114 -0.03086698746271718 0.0576409459735157 -0.0372997835452741 0.05125798581425995 -0.002322112269076861 0.017523872105391417 0.010168111747139268 0.08861349404929035 0.06957650246247642 0.002550524806300509 0.060121539042446416 0.02256848613816227 -0.04964568311038354 -0.07967144750913543 0.0380659907971222 -0.03347241972331691 -0.01623261959412571 -0.0966288094054449 -0.01922085873803125 0.08463691292817319 -0.04934705782379026 0.02307243543050265 0.08436711474921325 0.02924409055842516 0.015419860887696321 0.07791221180725838 -0.021014468344031652 -0.031529739748826224 0.008248960441298105 0.04412349576861099 -0.05902954244724375 0.02649002260954059 0.013574286529878252 -0.007775174878941564 -0.01745793598874984 0.0033043374367983424 0.10427853768129983 0.10616975274764655 0.05433404022586399 0.06495938784796611 -0.05626141810670522 0.03947057035039154 -0.022561059074388736 0.0037289619208380614 0.05811131764243448 0.008333150652743367 0.04523425705615505 -0.08844092500364407 -0.03604598172194346 -0.03575707012858921 
12.44 0.02575689150835356 0.03828083181684275 -0.09682362154804691 -0.01888261334503969 -0.09554627936481754 -0.16704036828908514 -0.10364551892717769 -0.05188598787185638 0.02937873498626491 0.0007455611972994656 0.005262678181611436 0.03522274069113101 0.015583976594141227 -0.10577505983875958 -0.017309077161274833 0.13928708926618596 -0.036824933152558116 0.05112002186668934 -0.0011535783785124585 -0.06859094693344674 0.016904797889033606 0.1151923066588496 0.06101232627192763 0.10701981877691011 -0.05395681128172484 -0.047077452661650275 -0.005580906757627986 -0.09477984089980289 -0.10707161743803438 -0.04844645037893578 0.05497124772054557 0.1151815951475322 0.009574398346164832 -0.03658808208328597 0.01323003783716914 0.1305868349566038 0.1649383632277662 0.08650688214487258 0.07081807729968215 -0.10040331821753791 0.015287076977198213 -0.05141986921212372 -0.004164373786847609 0.0058978188163163634 -0.058252227576849405 -0.03775081252034264 0.07055486631436071 0.037362553157334034 0.06382477552977746 -0.014816736819343637 -0.12484927362652741 -0.07692958589596414 -0.07142104717199402 -0.03039338320779675 0.05745026754462066 0.06062108309168511 0.03270011262754377 -0.0066186879096995985 -0.020209775175884206 0.050952709706489845 0.03477124067296546 -0.04687801220735864 -0.0707039661858593 0.07350501233238614 -0.00591725942611528 0.045708431102511625 0.07964668506384326 -0.08166378369819 -0.07054999410128605 -0.017168636725343148 -0.030916183498501913 -0.015646817386030732 0.12076479388955792 -0.01105945932213142 0.011191228056689328 0.09958313872542586 0.07230990572978369 -0.05324725468199619 0.0837598424523238 0.09463368326199359 -0.08327554121307441 0.06259254678930429 0.03661808859214685 0.019315556298956153 -0.02385666846699962 -0.014080057829926353 0.09199962340596254 -0.08672872239271988 -0.048493290307135506 0.04540479467194023 -0.07488232866781053 -0.027605074338480296 0.07095104676054671 -0.03823707158551682 -0.0899498193370396 0.014484216169955452 -0.059623116251112225 0.023029916970397336 -0.16391804814233182 -0.013289057855677376 
 0.0 0.0 0.0 0.0 0.0 0.0 0.0 0.0 0.0 0.0 0.0 0.0 0.0 0.0 0.0 0.0 0.0 0.0 0.0 0.0 0.0 0.0 0.0 0.0 0.0 0.0 0.0 0.0 0.0 0.0 0.0 0.0 0.0 0.0 0.0 0.0 0.0 0.0 0.0 0.0 0.0 0.0 0.0 0.0 0.0 0.0 0.0 0.0 0.0 0.0 0.0 0.0 0.0 0.0 0.0 0.0 0.0 0.0 0.0 0.0 0.0 0.0 0.0 0.0 0.0 0.0 0.0 0.0 0.0 0.0 0.0 0.0 0.0 0.0 0.0 0.0 0.0 0.0 0.0 0.0 0.0 0.0 0.0 0.0 0.0 0.0 0.0 0.0 0.0 0.0 0.0 0.0 0.0 0.0 0.0 0.0 0.0 0.0 0.0 0.0 
 0.0 0.0 0.0 0.0 0.0 0.0 0.0 0.0 0.0 0.0 0.0 0.0 0.0 0.0 0.0 0.0 0.0 0.0 0.0 0.0 0.0 0.0 0.0 0.0 0.0 0.0 0.0 0.0 0.0 0.0 0.0 0.0 0.0 0.0 0.0 0.0 0.0 0.0 0.0 0.0 0.0 0.0 0.0 0.0 0.0 0.0 0.0 0.0 0.0 0.0 0.0 0.0 0.0 0.0 0.0 0.0 0.0 0.0 0.0 0.0 0.0 0.0 0.0 0.0 0.0 0.0 0.0 0.0 0.0 0.0 0.0 0.0 0.0 0.0 0.0 0.0 0.0 0.0 0.0 0.0 0.0 0.0 0.0 0.0 0.0 0.0 0.0 0.0 0.0 0.0 0.0 0.0 0.0 0.0 0.0 0.0 0.0 0.0 0.0 0.0 
easy-to-function 0.0311279323867813 0.0309223284743595 0.01215728419791079 0.016634502839885025 -0.08872887257540456 -0.0006303154562868666 -0.13115328405153762 -0.012765443304634097 -0.07899448815602239 0.025961869005357012 -0.003647241414378554 0.020941803931252584 0.08755264384612604 -0.043529214770590456 -0.014373393916703616 0.041757555839017954 -0.08282123699460804 -0.0007797377957538647 -0.07464443625158144 -0.0912701435777578 -0.03232952784656639 -0.0041027499891488775 0.03894479667124891 0.03572399632484061 -0.05287378715266097 -0.05408743901471306 0.026971261950996573 -0.029624945995694325 0.0013459709708961176 0.01873931432392744 -0.018997326865910394 0.024796306247102422 -0.07844776462413332 -0.0007008660882346045 -0.0010400997796229862 0.017523603858703857 -0.015209084820359516 -0.04745829591275078 -0.028401333539633634 0.042496885463682986 -0.015599622041920558 -0.04464524838425017 -0.05299894241235744 -0.04688232672537045 0.007267183703830793 0.005012777708309232 0.00032631385337183306 -0.03225272650224414 -0.006826345188161868 -0.0559709806461963 -0.03177822202499916 -0.023530276873718257 0.04256339606016751 -0.0045385450940828185 0.02296708887371608 -0.019324149620509865 0.0007079869801314793 -0.04525301950783737 -0.025731251633012864 0.002219260420256911 -0.05492243789585317 0.011756742331618048 0.05147489911871616 -0.0568620307068247 -0.028954680919923162 -0.053434584788715433 0.02441832391818083 -0.022821827785078637 0.09620103108330294 0.01608330654849705 -0.056060080137499434 0.012800148173098689 0.017254869052656358 0.0540211103919943 0.048618403515937256 -0.004987867009847198 0.0061233493981818835 -0.0031346523990716663 -0.015109603694120328 -0.030282669134187354 -0.03868716442691252 0.02347818669201068 -0.0311209762391838 -0.04095726523564805 0.01829670530804182 -0.01944569825063995 0.0162756447363751 -0.03224085340004596 -0.027424398247769675 0.07162080060542635 0.028552144256444954 -0.033337626353704256 0.019909979733759676 -0.017285158487848565 -0.05440342583608856 0.025679685669462028 0.03213715340363356 -0.06857531116063444 -0.0234266979118127 0.03824789588816162 
iphotos 0.07638857446855635 -0.12758987037749958 -0.05959843212295201 -0.08937499034010071 -0.025774696352842467 0.007844313523763058 0.00888409711164733 0.0025258623446571984 -0.041554277081765595 -0.012761498142492254 -0.02002584032813056 0.05059319331124057 0.09571445909293928 0.02496661008898522 0.047090716169312666 0.0560674345118194 -0.008506851385991205 0.03645488152238793 -0.008767384847638357 -0.057960019548809805 -0.06133241540949531 0.04932426488804948 0.03635692691973237 0.058876980083638536 -0.05962771799784224 -0.06454702539145404 -0.02202706708820494 -0.009167084624314658 0.040306923873825 -0.08856437287489334 -0.07158866193840806 -0.006860641314706962 -0.10328557426747986 -0.019930511925871853 -0.052549554377707204 0.09594721546362844 -0.010382644945452239 0.0300635537258356 -0.05224116477935394 -0.07320015462490363 0.0379655370801175 -0.13944965205382506 -0.02668352349911215 -0.09734695823523874 0.03061547604348017 -0.01470015520174436 0.025681260564092603 -0.002564578973529101 0.051638150262241694 -0.009121515599325194 0.04102283635736375 0.01589263961456292 -0.0029273985561422116 0.048212828935439184 -0.04119575965170215 0.05175973201215945 0.006600812731102015 0.06849186101894084 0.0437766793842758 0.021474858472063377 -0.10027077798533013 -0.02863943779689896 -0.04624210755046924 0.024029991565936513 0.033877480192952475 -0.03637272305056 0.03052515566134342 -0.036213024401845824 0.060003672735971396 0.04017547203519453 -0.026526365098880386 0.07783821736353988 -0.008337720436634876 -0.005002642133998806 0.027647881677282854 -0.035278007470673736 0.020564667071462858 0.013922490452394914 -0.031958482244496496 0.04979896815211181 0.0037759140593722398 -0.04933016135651919 -0.0970113144169554 -0.038680760983756765 0.08249190122753854 -0.017169954496555794 0.05317845802888081 -0.08476708078285147 -0.02063771202101578 0.03307672490021707 0.028897474898633757 0.022133110388415422 0.04272237953958691 0.011493030347638848 -0.07183538172209053 0.05069560698180413 -0.07501664710517021 0.03708189382399029 0.039269464068478505 0.033993795979693466 
paralles 0.016585652855142352 0.0230582096545766 -0.017184896662116252 -0.10321299850194329 -0.021639447981121447 -0.04443803914590026 -0.055571442508443494 -0.05966399062148737 -0.005874615592437278 0.035971758115992285 -0.04591185677593099 -0.01097592353060514 0.038103457550369674 -0.025497446607603363 0.03939788459064946 0.035217045013092675 -0.013019459790138238 0.012663156430416196 -0.020237540741230606 -0.06856835428337686 -0.005497850256125471 0.0792295793278477 0.062361505003627846 0.09882350331627197 -0.04492061936812851 -0.13217580901427495 0.017818241248350724 -0.021476170972471245 -0.025625047563262598 0.04404683070083564 -0.0024116865138606313 0.06980530452531822 -0.009512073335527563 0.01723182405082856 -0.0822661509350167 0.013069347241764803 -0.0063788624641309246 -0.004262950553406461 0.024220176331440885 -0.06797668506747463 0.038175845170509815 -0.007044310965136241 -0.10032334758185617 -0.02205500930065919 -0.025560796048876858 -0.0034682659637157083 -0.0028520998239495252 0.008630050198821603 -0.010714760922723575 -0.052583546207617876 0.02960198421672819 0.0803368518523595 0.004159462816758408 0.02270318604105148 0.017317143840000312 0.09951180093339847 0.026155422431862568 -0.007080891623272388 -0.040371266735215024 -0.08860315182980734 -0.02224785632122613 0.05152344292461924 0.011248148503060513 0.00902611323495916 -0.052926681140718156 0.009042961091058616 0.004966423225978351 -0.04589119492153459 0.06490739228974775 0.05453766852624532 -0.043713449449632444 -0.024753097144603303 0.05495391960647867 0.020503375626992705 -0.04260139379849445 -0.05019388162818854 -0.025303253302215445 -0.019101960525082666 0.05977057232775687 0.03282111726102812 0.045983381875059536 0.07515230277853895 0.011987698279356933 -0.12479604850537881 -0.048035567908338475 -0.026051078955394564 0.02370189180368179 0.0058295044862452456 -0.012851865578025395 -0.026148508876009426 -0.006856524896326295 0.0311884459238105 0.04835923063506739 0.0040600868687633105 -0.021952230766063056 -0.06759413090724901 -0.024377005998439755 -0.040679994542173636 -0.053555242076457565 0.053685926291529976 
l455 0.04930748388683184 0.06314224631883492 -0.08047010737032943 0.00570163189058483 -0.10413363085046573 -0.1218146946288855 -0.07727343776209838 -0.046487219037093415 0.06899364476360319 -0.03231988949601318 0.08421687147667718 0.08797073660484851 0.047582083043060996 -0.10884596504504945 -0.04671945107336199 0.09102167135297773 0.053851651082818065 0.13726675653548986 -0.031914822673959065 0.020575134132559705 0.07947364035553871 0.1528490197781519 -0.01386985589668019 0.1775192722026671 -0.0044301988069931205 0.04635435210149531 -0.003921730999236741 -0.07714924314420389 -0.18669827764675356 -0.041297047409115044 0.0529503267863826 0.12881936992247114 0.01342382273055616 -0.026194732596979797 0.01324862917711112 0.07628346346047235 0.1784619392137825 0.15960228090123452 0.02291079685083255 0.029570390858077313 0.05464144837396578 -0.10359017016083677 -0.06575187835825551 -0.0097220967092173 -0.11240143121216514 -0.04966398225280925 0.04886175056767179 0.016972867702296026 -0.0023014314251817835 -0.008626879188840279 -0.2244982567140312 -0.020038092659246748 -0.03849842140532868 -0.07740830905842937 0.10935529649898548 0.05351581503259364 -0.09660176692985077 0.007081454199535912 -0.057996113389465774 0.04424468287969427 0.060111346175252614 -0.07181860968636815 -0.08358500370174822 -0.04028638258043245 0.04328442381189013 0.0532119816988923 0.032057190183194396 -0.09358874134404403 -0.10228110048190522 0.0009588322820954262 0.018561061493497334 -0.005277864738347595 0.16770061227581112 -0.049262818291923534 0.01837972621896591 0.053292616822287565 0.08018584235916143 0.05888251363466879 0.11597809303225044 0.15154151285797965 -0.061388313175738056 0.13641838900802972 0.08905076837243683 0.05520918118444367 -0.014089859205959015 0.012056195815018786 -0.0013427990669324001 -0.10748266695420106 -0.06751650928976019 -0.0009780004464959157 -0.06631487694722385 -0.021752193149104853 0.07963394078541149 -0.1865722734696998 -0.04736114949806064 0.03043835588950174 -0.022369727486337226 0.03912738679203153 -0.14561395212021017 -0.04735897361881077 
gift/bonus 0.0726325631162858 0.012754684929691505 0.08587794225462929 -0.14511870829015475 0.010378101476300208 0.03885409166677608 -0.03690537370241372 -0.08528319977742833 0.04839220941798031 -0.037077271647487337 0.04153593190035461 0.04254896651271639 -0.014942417285535784 -0.026297485085817127 0.0828237204009122 -0.03901751229637585 -0.02243745567425441 -0.053939247891898 -0.0022115201922875407 -0.05304974877056964 -0.0970743409855701 0.06596242472033682 0.03431329264424417 0.035704989109572 -0.004156479618887229 -0.09697690007683754 0.006616838443134691 -0.050811572641411666 -0.025647778801788985 -0.009931756804856907 -0.011023459148341951 0.002554280451938929 -0.03334277387679911 -0.03698491161461054 0.025236255098651614 0.0749952705063748 -0.05964776975171546 -0.010364572400436759 -0.04384271147181224 -0.05618278862427735 0.041881673602367823 0.06725308459253056 -0.05923148773623152 -0.11357875578957416 0.004945920163646091 0.07545194476546556 -0.020124637780959666 0.02575404511355881 0.003130325561172985 -0.01377405695807542 0.048625732173867085 0.06368588278867379 -0.03855253283018863 0.04170095049290831 -0.06069346644559626 -0.005981439645863712 -0.01369611882491119 0.042431671626742835 -0.004169019409185181 -0.05318802472013855 -0.03490553321698105 0.06785768626972366 0.04477389080904439 -0.01717741630149813 0.08614500081213372 -0.0734815629384988 0.04251893206418386 0.031380436905755184 -0.008847396727684904 0.02406680211757179 -0.031298593504986004 0.0420223502216572 0.01147039489518055 -0.057334465940964585 -0.0005942260822196682 -0.07395872596417044 0.003136279179238877 0.02491054837638556 -0.05792544964757227 0.1167458663964794 -0.0070409980490404945 0.054050136630257165 -0.04275324001797625 -0.0011070003381683374 0.023208888448708834 -0.056637195253050825 0.02245209515415996 -0.0706022061764185 -0.11202799895980434 -0.04262052406306579 0.0233513552558931 -0.020621758160657394 0.002139703315219108 -0.08629932167694139 -0.065626184928123 0.09188060096352471 0.05735172246006446 0.020721743302456578 0.030273292864542323 0.07345922293584048 
luxurys 0.038257366941061355 0.02224676921624385 0.05490167161905159 -0.015919441779437264 -0.024719973307629473 -0.04118183058749237 -0.06651221522272224 0.028050286407225906 0.1519389733936496 0.03704553107855091 0.08558386010352054 -0.06322861747294149 -0.0190675899043359 -0.024235936802281536 0.10067225056886395 -0.04013953213603494 -0.021548839687420784 -0.07715441154133594 -0.14581492703054763 -0.021878187781420883 -0.17445141295167693 -0.005998098086375379 -0.0062696958277213225 -0.09389370455518477 0.0203025651631349 0.06779346578164044 -0.06241852090629912 -0.02679348701178673 -0.0024942689676764832 0.011400444320806358 -0.08116046006540747 0.0936303527397915 -0.06493253042023196 0.01916480980438281 0.11985944178975388 0.06912251551647862 0.03212098288832104 0.06761322398709764 -0.21768339269991815 -0.015860671832800512 -0.041408678301503056 0.0985067785853296 0.05557352319750182 -0.06913401455055787 0.03438798295156306 -0.05212797505222865 0.06225101796839312 -0.06727121666450105 0.0719999683511549 0.030115732766444872 0.052260323374487945 0.12472458653058621 -0.04305745382672687 -0.12291948963711177 -0.2105978940949929 0.1382943780662223 0.024567085141918243 -0.10115870059545724 0.1446769296444625 -0.018483339880437086 -0.02485513701662414 0.03915131090283395 0.02070689283597428 0.11076764253161356 -0.010040694949629664 0.04242673222657439 -0.054142952484287056 -0.04599715564908934 -0.041642178449338 0.08715150804341806 -0.0006234493714647063 -0.04970232426772624 -0.006108847186283804 -0.010768894309637966 -0.03968728025728245 0.05118347380411042 0.05499507344769757 0.11409234138870669 0.03605083063743792 0.14277273262801843 -0.14997792940699706 0.002146248563883431 0.05422510708506899 0.04312437665441685 -0.10935724646716877 0.10565849512352361 0.05406413274425058 -0.022074394648801173 -0.025944635338224435 0.08843415931078813 -0.03058713262775746 -0.049323725997960415 -0.06918006656620146 -0.055219371201773934 -0.05060391636307283 0.11122794289603163 0.03538673091856157 -0.04394822605464216 0.028954185969512696 0.0709032154959869 
1-year-warranty 0.007748172334734556 -0.014548933176367355 0.004557382197836298 -0.020086777268100976 0.019888459310241628 -0.03396595176491495 0.046457941061268604 -0.0585285692882679 0.0584254029682652 -0.0076537930581595925 -0.032130064070262414 0.057360645967813546 0.02187743332915535 0.028563039289208135 0.07406546911055893 0.012844473353795197 -0.002559938266332399 -0.02073523875547616 0.03256922618976854 -0.03834934724014886 -0.04313117158215848 0.0937161681784336 0.06307011571271835 0.07799270225260244 -0.048203425093365615 -0.07721815809841169 0.014038324972395062 0.01466019204871969 -0.046397303552756376 -0.021607151987620768 0.008949064798095254 -0.007339113608914537 -0.04779995038330519 0.022497922467256567 -0.009769477851074378 -0.02122601930106278 0.025493878040845002 0.023795397320444802 -0.014686540031833433 0.013960167874916388 0.021163057770352794 0.024749103339131464 -0.07574260726397204 0.08782443917662071 -0.019140133568920078 0.005593016588100802 0.07791279128080715 -0.023728669855218057 0.046105830836683584 -0.02106808444971322 0.003197627115161098 0.0023976945427243344 0.020896452576083746 -0.03155903964776789 -0.04511723018907898 0.02489633216477725 0.021755218002356125 0.05917445858703982 -0.059707702212150084 -0.042246764130758896 0.008331898975725695 0.019259586437926725 0.03938739540105724 -0.0020022666609586866 0.0360668580528042 0.029911732107557494 -0.032789745673368294 0.017538124791258443 0.008208073221559854 -0.03272500679901438 0.03517475067522371 0.021492288318948893 0.0015098643413928342 -0.0657552826153613 0.045869777724004114 0.04519073649476073 0.011898332537726979 0.014427018693903252 0.04445827794343777 0.004596446831065093 -0.01041151003109454 0.016480853179085916 0.039202305544592746 0.040583232071504396 -0.004690579881489787 -0.03197498425016317 0.006576263714506639 -0.042837394518076 0.0036249376589899776 -0.05355255644137539 -0.07853006443809628 0.03637750620270459 -0.043948926081893346 0.020483172778435095 0.03464779672506027 -0.041539897173449095 0.029700214670948518 -0.029100037537147145 -0.00918000035953706 -0.013573517587535486 
:d -0.03394313322093255 -0.025624887778184495 0.011788814022139334 0.012704693879205184 0.009098195578384625 -0.046526877694830986 -0.1002341473355907 -0.05904077207923573 0.07630331165620263 0.038205282286457025 0.0047015477678512795 -0.013947993993505596 0.1891014077486049 -0.010815095336818977 -0.05774442525459243 0.04432722758688116 -5.3498867226777934e-05 0.07667471360003257 -0.024633952672358007 0.052093823470493295 -0.011710443266670818 0.06435476983878391 0.020251634416623563 0.16142042105837848 -0.013602793865888986 -0.07981465491086913 0.008948396142447742 -0.1359108826456596 -0.08077681123584479 -0.011287843752545332 -0.06036047040877789 0.09225160113796475 -0.0784072130037919 -0.018771649818678612 -0.10224479540041037 0.04085228039659463 -0.10812674644393383 0.023570187711950227 -0.06090771900528795 -0.16436792142283554 0.031634782456052946 0.08077520749917316 -0.040503479777704805 -0.0572814710878249 0.028212386978408388 0.1427499310688249 0.1300329325619162 -0.03552358125189555 0.01656743661074452 -0.15503412183997184 -0.03701878350758174 0.11260069119554406 0.09443167834764227 -0.0811273571523668 0.11015959722783096 -0.058151221629512126 -0.04237932967745757 0.017900990684962648 -0.07770676005771462 -0.06689766616056576 0.0032895488980569714 0.059271969998817335 0.05136837477033379 -0.017151657181581636 -0.0035588486020990693 0.11711724207099473 -0.03360543303025935 -0.06466666914741169 0.00912904469192163 0.04085898032784645 0.023877788969045185 -0.0955532013441116 0.039092631090715056 0.04054697810812563 0.13781748340446687 -0.03036948451353903 -0.05809366964846718 -0.013924986612125986 0.03708703079172592 0.19023900466618318 -0.05762712104402014 0.012119743501080435 -0.027462487347600394 -0.13177558523930735 -0.14434242854523355 -0.0031509979705520398 0.06601581588203899 0.018038140904015714 0.05541112111078656 -0.0720467616991972 -0.106236646850253 -0.006025547874214702 0.19475490547880184 0.011112744951518701 -0.18219940567616272 -0.09052886478387359 0.002092900570838304 -0.16975591039563487 -0.1230494398049405 -0.01970819003809806 
nb205s -0.06439114574980416 0.1614090460937335 -0.06686017979229136 0.05493943502171301 -0.08131287392569285 -0.04835811632246647 -0.017459159485179388 -0.04022331995595838 0.07953367400956893 -0.010841028439900636 -0.0437019942562223 -0.08994963995407941 -0.015977660456087974 0.006086401475213523 0.013238661545358413 0.027379124922643248 0.07831453901728119 0.060445880857833235 -0.060964478347416286 -0.0388856860023031 0.05266621614187987 0.03911792238474223 0.06998854281081954 0.089986537700423 -0.08702157020609219 -0.06892607795421882 -0.02038109884316777 -0.030513488760960262 -0.10724469548925913 -0.05731628042245672 -0.048385251327955466 0.14366975604735752 -0.03968395273812121 -0.003643199518367742 0.06660370854189386 0.1729332060597787 0.01631065907781421 0.18588860593848835 0.0280857905258462 0.10902723140173333 -0.039953886562288106 -0.03206032253040957 0.03844382729420275 -0.008052228050922964 -0.0564793833704429 -0.04034858559445668 -0.013345596588612464 -0.07686964219493486 0.07240325267041704 0.08131470800967176 0.03520562071298951 0.02626442740982889 -0.06658394526256657 0.04073573796709826 0.05970405163034259 -0.02381979376813123 0.07176957370651482 -0.11384132807571588 0.02415965809758897 0.047595950742015315 -0.01153454358840924 0.022006591276142292 0.00824693501769284 -0.08410517489312716 -0.06263105765308374 0.030177789925549425 -0.06198891172803716 -0.01769001021530981 -0.04890414870330759 -0.04540308541581291 -0.05402131564761636 0.11088613077281778 0.026419725154848184 0.05205291512999931 -0.04537664086936751 0.1378857207628385 -0.010564627329607116 -0.01036826361813946 -0.032122423719866254 0.023545557855985364 -0.08136857444766861 0.0831973064279719 0.049751550760020545 0.13309549201584223 -0.0017967217355919151 -0.1689604081772712 -0.07484010720037135 -0.03658805313019613 -0.043386384662931224 -0.09372717091230567 0.003458198248963773 0.09970005491372234 -0.023145559289692884 -0.0676105497494107 0.010541630499378604 -0.07842322929256246 0.09673317091339224 -0.014504627767259417 -0.09544403587708461 -0.054830249748648335 
promotion/offer 0.07499519651365161 -0.006241780798775604 0.04374091340299033 0.024077411683952853 -0.018115376875050892 -0.027699952958431195 -0.04632685614216436 -0.005044499545850163 0.043429897858425055 0.027008792023253646 0.0014130786414526383 0.034123398408101246 -0.0026294774363759127 0.0029692198052497635 0.039221430553656775 0.04507425806960525 0.02006838721387364 0.030022065569856336 -0.04309455482836083 -0.04062265773765605 -0.052121820137040364 -0.005825298126638647 0.05467241209807208 -0.01026494992369651 0.02243928778947632 -0.07648492929809894 -0.00930746233433218 -0.07674732059722518 -0.01607940132496228 -0.002295821881070734 -0.012280355456702655 -0.04261869232162665 -0.0041328939227562676 0.012631735062680815 -0.05347799705488596 0.012813105829579154 -0.014873693077798811 -0.014880269818754656 -0.03133923412144151 -0.026242979586011378 0.007649869310670396 0.0011187563546180162 -0.03234164123285909 -0.0921179257482875 -0.005299247104298258 0.03373679657235899 -0.023334714391199777 -0.027815555850109825 0.07396629719577383 -0.0239437006616058 0.014514825250685683 -0.02722825284653478 0.03792138626810482 -0.021042010043556995 -0.08134630786332958 -0.009647744378737968 0.006955568453944559 0.025228305844554513 -0.044840250311892677 -0.03132466130400496 -0.018404672206282908 0.013474283689845046 0.01890913568832757 -0.03343140256815201 -0.030744845551437253 -0.025616645961448126 -0.012868620826884669 -0.006100999266380129 -0.010923543415701563 -0.0030914883791851723 -0.024448332777702277 0.016439305532952878 -0.010476115302045976 -0.017187408652527075 0.00263670599961749 0.014034657463866042 -0.012305545350899985 -0.0013131224338195763 -0.02380113754802917 0.062347763841692265 0.02482256129847 0.024148744534622617 0.00013541036257542206 -0.008732533004678893 -0.03665625286602354 0.017803706048078016 0.03145684635439828 -0.025515557087770518 -0.005255148780730188 0.012635243787948159 -0.05004167635760369 -0.02455024807400235 0.05229248678732714 -0.00030927721167377107 -0.04385462172595672 0.020691113198956595 0.024948373163320138 -0.026049228270220163 -0.027908148452735492 -0.006018383404540624 
os.x -0.007513760568003177 -0.10086879993880501 -0.08957963182733789 0.0693206760931421 -0.021652625485841934 -0.09405357111579024 -0.09716303388028925 0.011973596222527621 -0.05008598361803361 0.0899482693581473 0.049668081933416146 -0.027462184588332918 0.1528499535839421 0.026986024039480003 -0.06185711348473719 0.04067866972076737 -0.03565602181933761 -0.03137516208960868 0.02509299077609129 -0.180289238199562 -0.11606062929482763 0.09605420407608888 -0.005489332013414127 0.05596161444723421 -0.09330523629184359 -0.14212662211082303 -0.0889757028666221 -0.06394474684566596 -0.03482728842785079 0.11563156167714424 0.050303082909272365 -0.014522095647646279 0.00626513122049054 -0.06713584311102745 -0.022352965858667365 0.1607636074788219 -0.05169498376949809 0.060242547130540496 0.06398981104650335 -0.0895935346060975 0.05369771593018017 0.009134236472406819 -0.02039649309572835 -0.05399299662108884 -0.016522428101294336 0.08851963807914479 0.04939492356112993 0.0035545658889269884 0.0465990509728125 -0.04346532043363512 -0.03364134545061749 0.017647103422497392 -0.015856995239133947 -0.017275560787105265 0.09749896802979217 -0.02103602930057034 0.04894625005758187 0.0037210993482731276 0.008145830672694034 0.012873518801345315 0.06714238580515365 -0.033868230406820306 0.08905797090838721 0.1138799953343614 -0.07968397265920597 0.1574319498485361 0.023274251049373057 -0.09917870086545771 -0.04566238540236745 -0.03287780616982667 -0.10860856727462226 0.019722074136507266 0.09168409976951389 -0.01827708022517914 0.1720899415574447 -0.07728461533669263 -0.007991763272294627 -0.11820585997074355 -0.04984161583178133 0.153899618347344 -0.049974516139760575 0.08721060192781475 0.09102363458031061 -0.05441497935986792 -0.13233028908304684 0.05361007974688435 0.1442319493530081 0.05911254775039391 -0.11902396138726255 -0.07916370624012552 0.018193894520543052 0.13254238717372696 0.11938969288216698 0.09503051497717745 -0.07009764224701553 -0.005760197780726704 0.019969456226241977 -0.13325875280875205 -0.1538712813152527 -0.012542463383523278 
c270 0.045742714517781106 0.10454237548366167 -0.017368422902840634 0.03809461442199983 -0.10142934859987959 -0.09167275381440532 -0.07797070506019353 -0.04216895176131111 0.11706386327362478 -0.030089005123224752 0.06498255818744875 0.045719316033473754 -0.00472327413233533 -0.05168218643094293 -0.13894393919270515 0.0997969007803811 0.0460174154930693 0.09786948559653014 -0.09316912758173677 0.0041194238180300114 0.0705288081127845 0.11650017157869721 0.01204279421808854 0.17788020917274516 0.01839828077820047 0.007817798202322587 -0.03212479234353333 -0.13535956541513403 -0.13693459633914679 -0.03254614236155658 0.023081394661343933 0.09889522330184992 0.040238264201789345 -0.03571609189969914 -0.01886050536965173 0.08652155639095842 0.1684269595781642 0.15300696243299755 0.034232047152151175 0.025972619213190037 0.045574489763184504 -0.04294606528408209 -0.04252744054806149 -0.020171156931059704 -0.11804104439318033 -0.06049708627205068 0.015618671018066743 0.010835209830147687 -0.0028036769920901285 0.010054777773042343 -0.16804520729063838 -0.028010578109852684 0.023076942940550203 -0.02638849515131886 0.1005019759961462 0.057882487273112064 -0.021158044990553095 0.037862416699188675 -0.08921910035463991 0.029831167768926244 0.013328122368323984 -0.033491216609040274 -0.04069518956911585 0.01563737127219803 0.027775592677338153 0.03271605851394116 0.05979200599222034 -0.06440518490165921 -0.10286534986206601 0.07543713203631254 0.030222541314734463 0.011273462184521405 0.20072845194243497 -0.029949268289426817 0.041666589505234775 0.05293518518127448 0.043247240028257854 0.12379256800719123 0.08049778117941823 0.12942319294272567 -0.0894608776881625 0.11749559031801078 0.010871522204669174 0.006585924636669752 0.03782098935684699 0.038347991840950515 0.0013779341290831785 -0.13303461697771393 -0.016074570533833772 0.052855436049147435 -0.03944556546528977 -0.06076339114359709 0.07105329567731933 -0.16151884717877452 -0.030190602546345292 -0.004695411179759687 -0.02116541966651652 -0.04027546354442609 -0.10290077876093101 -0.039096664642048064 
crutchs 0.09535326205477387 -0.05512874923757394 0.008075258942182499 -0.019744515381658084 0.027019075115861185 0.05187681062104157 -0.05033280848628998 -0.040544553187790794 0.08377030232033185 -0.0034404254156856495 0.04808253205786912 0.028322674816243253 0.06124654789213463 0.0361327769845214 0.0406486727956347 -0.05006457273728668 -0.07071922757957272 -0.09019262327931973 0.03112075414216978 -0.012081740056598633 -0.09689154903655711 0.03304529455823547 0.06097524660235783 0.008832878855200213 -0.13043045177149937 0.022911094762273005 -0.03454361370002426 0.041499131068707874 0.001811319599879978 -0.008443396339932869 -0.07730662207913522 0.07682215366751712 -0.025398094342835964 -0.006406521121235625 -0.025665501587442588 0.09076929996483145 -0.0023198398778384362 0.03229714041970848 -0.007541372329464763 -0.01704639581899566 0.02448961598881987 0.018687975394341947 -0.021343359739099066 0.011396767527389162 0.03160107807602748 -0.03166104909110952 0.0789631029989596 -0.05608816962238149 0.0629089464344146 -0.08482042102604478 0.028824464613565578 0.027720755382453194 0.04005341101307001 -0.0818749033077605 -0.1176996774265419 0.02449761157778834 0.05284722880566868 -0.04048476899597985 -0.02099021807535085 -0.12614147394087608 0.06150208673675306 0.04676245149023832 -0.04529378539718096 0.049233910280371336 0.04348213659811976 -0.025703715607681407 -0.034256680769318544 0.07529022659319169 -0.003044179776932458 -0.004287402964464598 -0.0572306946011278 0.003212339906166548 -0.02408807615481786 -0.08777444022761889 -0.005050638798050188 -0.007010299055417758 0.05084134925334098 -0.03475783926975993 0.0005162243164532559 0.19569715817864544 -0.03474758124696207 0.016646919050348322 -0.03885379401614076 -0.034565254838362376 0.06850738496347433 0.05301317071123819 0.10180651521051054 0.03318876258355333 -0.08112342523306336 -0.05924244558232062 -0.06315284561182341 -0.002023639125215641 0.0049735394603950284 -0.016428615964931982 0.046454071275949624 0.04293685367273249 -0.013649544183893787 -0.050463607872857454 -0.01357306571230882 0.0014823531561224568 
md103ll/a -0.03321183302396248 -0.00767068553886568 -0.01668006698131303 0.019650489511176733 0.04072307621777517 -0.06405316629607062 -0.02879903515673776 -0.028800037259326994 0.10907494783479094 -0.10744789830814007 0.018525860788304566 -0.043309927683472284 0.11852799390048516 0.017489495324342227 -0.03519728137515806 0.17344006419654429 0.052754923400856704 0.08673320844346963 -0.01586703675002745 -0.03587668271628453 0.06984266685648238 0.06729976448110683 0.06595316770641385 0.14216042652558736 -0.0042721477396862086 -0.1254963880634305 0.0057244970711730755 -0.13957708055630835 -0.07215056313617282 -0.07274381345693257 -0.002674701217590568 0.11918359251115097 0.099558299919632 -0.035985482559018914 -0.051423372134833875 0.12490019010819589 0.10195594584831816 0.09974398913360534 -0.0402685798527401 -0.09145715357671914 0.04129452801325273 0.025511922946563605 0.0036714468420548227 -0.08793620361444555 -0.10547494457435823 -0.17160391422999097 -0.015167090908838502 -0.05525127270929406 0.03914818072922575 -0.017312636324529673 0.01286199045811915 -0.022075889304370783 0.09576549808149198 -0.015315491498967736 0.03803248105707318 0.07438831223461681 0.0015326991464369103 -0.017458391028547366 0.08401035601020189 0.03503963368780902 -0.002369499511909332 0.03573867754353545 0.016665141147533872 -0.059389717984374556 0.03006793405618595 0.11929208781155573 -0.06024926868632451 -0.05204172810568471 0.013775993701135457 -0.006387836656585623 -0.008905495720820864 0.0350073321774431 0.05775571986346878 -0.05003252638410025 0.06962106434858933 0.1019307498599825 0.0759932111962283 -0.016632067105478574 0.06019822105888851 0.098984203169365 -0.1464478796128121 0.11267718999357357 -0.022980268031882627 -0.062342222342523027 0.02827343514265035 -0.0065776116388585795 0.0622563199851594 0.007797544648614798 -0.03757683078394512 0.0732777162076213 -0.06632461528502712 -0.11154774773238127 0.05070487296025139 -0.14406252899860839 -0.050977172918467484 -0.06654566738155378 -0.05301052382233713 -0.03674233171540393 -0.2744398607511275 0.06069451888546188 
344.99 -0.046578408216873646 -0.03669573065487346 0.03171317682108464 -0.11070976485906403 -0.06455693839156926 -0.06828088913795127 -0.06058835734050514 -0.04958162592757098 0.05564045723784 0.02704742938249742 0.0020769717745899746 0.04498465944362334 -0.055726023416444344 -0.0925023292154664 -0.045069513451615105 0.028335486938401214 -0.07138045432602068 0.06008420628263844 0.041116461134754125 -0.01907930729037613 0.02648912922130185 0.09277881749897936 0.01840380125043741 0.062437988966349486 -0.04459417675270502 -0.14478277671782258 0.042774063526761254 -0.13494251918460137 -0.19076296736328296 -0.01005618168697027 0.07080287152218254 0.08093365391998099 -0.0664829368041619 -0.025874568648852635 -0.08261625209380481 0.1423327250982635 0.11893578250794298 0.07381040366159791 -0.0067952319830151915 -0.08303998516818117 0.05693963959526387 0.008433548569764037 -0.07028630950653457 0.00783356947960469 -0.06107162411399852 -0.003267916616533767 -0.04429951099582052 -0.03206961296429164 0.0810038050051199 0.055372824355941666 -0.07243520676830302 0.006219315392595552 -0.09105690443688745 -0.05085513847797967 0.07781864271078082 -0.001082299096803211 0.027083493601425267 0.04799194222146093 -0.020758796127887502 0.02110511364703327 0.010023835617581453 0.03791641060380329 -0.12270167435054984 -0.02748260751689084 0.005092664549095102 -0.019178545476122695 -0.03876847686442623 -0.06451950637044812 -0.07511857351319955 0.021353845029989178 -0.06664962744464592 -0.06201485566361121 0.016444578509586597 -0.003588557595373034 0.0035276672511355533 0.001352750005122234 0.09025290159689958 -0.03668406040885642 0.10421320052536949 0.03415076082741528 -0.11411786552314877 0.04914612435266232 0.04599306121085562 0.13371731036996642 0.03291271140492292 0.045715942499674936 0.06435839548873079 -0.10449094896572608 -0.013320004229550927 0.06439368936819995 -0.08625858515819991 0.006103837776627095 0.05601412971430864 -0.06964537333989668 -0.058854500985154996 -0.018346608507831753 0.045157457936640326 -0.02239351253260377 -0.13309324394480285 0.04040666849875047 
flamable 0.005526475470512192 0.026738959514682747 -0.056943507266390914 -0.007134934461084481 -0.033714597090057453 -0.003579125757904605 -0.06507397886916846 -0.05865495509581193 0.010361123000600946 -0.08107554725671584 0.0003759501963302669 0.012630913923222043 0.02904675910380668 0.004956942494321094 -0.0013092875706687543 0.02553760226341062 0.01041676966299754 0.017925316904768993 0.007799786122637269 -0.06645455288758585 -0.012118551878701431 0.0413271828583995 -0.018800020807379785 0.08366600076718207 -0.0949780377580445 -0.041906824539519126 -0.0029892760259436105 -0.05935573185180177 -0.009333177932838038 0.0013247070109479453 0.029144470312907747 0.11176534881732317 -0.027907045096512713 -0.0010931150309383285 0.04480629017222816 0.04148825507754522 0.0209356407891641 -0.0798982300865381 -0.06049330428310311 0.004821363466687082 0.037249789806472 -0.02304486036949903 -0.06568997789476107 -0.05539968022087663 -0.05691581864225505 0.013374280433575128 0.07246317881139161 -0.08944180648105587 -0.02243571250115488 0.015677285050815365 0.04675511157804649 0.06346022033366693 0.022435300682005395 0.021807355204891722 -0.08614136616308386 0.07448259461961257 -0.02360894794693277 -0.048097118427524385 -0.0579220936408529 -0.06494287846937255 -0.01937185381534863 0.05977198464188495 0.022000360812211 0.03540537020119061 0.08637200201439776 -0.00432813765396103 -0.01069908149795941 0.0042842241702425905 0.01952429151115376 0.06554704061935203 -0.017564071940807786 -0.08183657763626472 -0.009892711576281795 -0.03927971979413671 0.00854064202047366 -0.027132128233450833 -0.013697922496587005 0.006809023987602695 0.014386449073519086 0.0812969820641482 0.0645616541939615 0.04012159711212888 -0.07388154227173632 -0.07013834182749606 0.041968918281632614 -0.012899258191409404 0.09728740127040636 0.008155798917028308 -0.1593834814689227 -0.025944521667235765 -0.01066415996167872 0.048039880047735246 0.06215880267060058 -0.024738322179465186 0.07373414198269229 0.02993735995318328 0.05461739322112648 -0.058673228748387235 -0.011199163211857675 0.03609400346911383 
962 0.010493093511614312 -0.004487447059545856 -0.04495177778107865 0.05420862408072366 -0.09166305399385523 -0.06495686725391767 -0.0689811156746424 -0.02094488847562915 0.044937276164520125 -0.03777533044994239 0.006687548393057468 0.09960314866711081 0.017126185638316995 -0.10614334700137794 -0.05286947508893599 0.0942209040890795 -0.009802100237028212 0.06558596788793951 -0.037911630837571035 -0.024249193241180394 0.16741391096295874 0.18166190988477762 0.0409506312709276 0.13923893239970073 -0.043241577604650326 -0.010842799375594044 0.03479183308899108 -0.08681565652713114 -0.24710787398272224 0.01111724323730495 0.14652142798240048 0.1724071124937723 -0.0013512999513432035 -0.05494377156932582 0.04573807627387091 0.15172442658205398 0.14218592985021897 0.18678940433841396 0.06028589991317496 -0.0052163463081190365 0.07956846177764922 -0.06884371586126413 -0.07170506241138815 -0.027432046385977637 -0.10657760014905278 -0.08625565626830528 0.07612775930130894 0.0005064497032220344 -0.0060163278435436856 0.005532098030650508 -0.20927239921664462 0.01533099684792919 -0.06251326989237571 -0.1339454353680759 0.09351470488558998 0.11088084473395697 -0.07392931013321861 0.050920124317022426 -0.04166592809443845 0.08326926016728985 0.0756106631893984 -0.09415495158261179 -0.19917440141463416 -0.04364697687999133 0.024241138236260045 0.019427430415505275 -0.038528931620472426 -0.15617442517959876 -0.16069391903291375 0.036360082662971 0.01304769375833939 -0.05346162179299663 0.15996741700744901 -0.03695378188098727 0.053212170891401615 0.042377478674766024 0.06935856562424787 0.07624786166915759 0.13183743247791882 0.16253841737085173 -0.07565851265671225 0.15411592019688838 0.04015038017596004 -0.011882943679013465 -0.017945191232253625 -0.014328742686020997 -0.02332823954126496 -0.04184766908474614 -0.10360979696262052 0.09843034963645825 -0.1172359409364252 -0.03166883438632265 0.04086127836515029 -0.24640588062987676 -0.07359046348502929 0.0442953796303823 -0.04112199558671259 -0.035389781929790504 -0.22287238421505298 0.02492068765760184 
reprecutions 0.09292595022010694 0.011833083836958027 -0.010988552137717317 -0.024164325543589965 0.04333894590758799 0.0026074340934355788 -0.021558910669278637 -0.07672989414015524 0.005214300178649607 0.03358054368421191 -0.0027412309781738235 0.020675595763766142 0.0719331595876439 -0.019309650839121603 0.02986208169906142 0.030107098697666722 -0.03372193670841265 0.00023806766709862914 -0.008526022248346454 -0.03219222134991947 0.001388982440459002 0.02832289481310054 0.08385238552639308 0.029617488908901198 -0.03329152904941578 -0.07729029483592982 0.0033471173396233847 -0.03142700184964172 0.023307609011751915 0.02812572187530852 -0.01583863302229956 0.057614679243179846 0.03119730464054911 -0.04307019196549098 -0.0071831993391234744 0.024284934977803783 0.009859284630595043 -0.011614468058217309 0.0036365085779566497 0.024737190271702254 0.012022295767309447 -0.03690434876788245 -0.04646451062803025 -0.04335058358373732 -0.05286952245921631 -0.0021631064808556454 -0.02706931847968215 0.01691617571937885 0.008347080951512868 -0.008335052993027135 -0.004758506217440795 -0.027694728387592207 0.012421743526070053 0.0019697372790863526 -0.04711132146737637 0.004601738133318816 0.023730125637866244 0.015215529664415969 -0.06148434505451809 -0.051721348962003255 0.005136822886505553 0.00196039419800636 -0.016282863199740132 -0.05375038637464165 0.023935802965004232 -0.0611739141572847 -0.045385336630036764 -0.024197591183423017 -0.010490230122452256 0.07317571346849891 -0.04757220390609072 0.025282621444775506 0.030152719834945784 0.025713925940477667 0.001592122468987875 0.0441106200101128 0.01476340555714257 0.011346030322497619 0.01874037589583579 0.051010496715792684 0.0040748080757882265 -0.01927911463689405 -0.020236499161332307 -0.008501685591370484 0.0025533917903267163 0.019622847182112265 0.0029452241697556147 -0.004716797042127824 0.00046800667975109746 -0.009082221918455573 -0.031434974579208824 0.030536904999932415 -0.007287421007654363 -0.026523841653896204 -0.0020385909546940108 0.053292503994360106 0.06417974909104975 0.027912951578077824 -0.01979958400276121 0.01708840662265792 
